## LambdaMART
## No. of trees = 1000
## No. of leaves = 10
## No. of threshold candidates = 256
## Learning rate = 0.1
## Stop early = 100

<ensemble>
	<tree id="1" weight="0.1">
		<split>
			<feature> 17 </feature>
			<threshold> 0.96875 </threshold>
			<split pos="left">
				<output> -1.0154908895492554 </output>
			</split>
			<split pos="right">
				<feature> 16 </feature>
				<threshold> 0.44212848 </threshold>
				<split pos="left">
					<feature> 13 </feature>
					<threshold> 0.890625 </threshold>
					<split pos="left">
						<output> 1.9722204208374023 </output>
					</split>
					<split pos="right">
						<feature> 1 </feature>
						<threshold> 0.3984375 </threshold>
						<split pos="left">
							<output> 2.0 </output>
						</split>
						<split pos="right">
							<feature> 13 </feature>
							<threshold> 0.89453125 </threshold>
							<split pos="left">
								<output> 2.0 </output>
							</split>
							<split pos="right">
								<feature> 14 </feature>
								<threshold> 0.012646049 </threshold>
								<split pos="left">
									<output> 1.9874943494796753 </output>
								</split>
								<split pos="right">
									<output> 2.0 </output>
								</split>
							</split>
						</split>
					</split>
				</split>
				<split pos="right">
					<feature> 15 </feature>
					<threshold> 0.40015864 </threshold>
					<split pos="left">
						<output> 2.0 </output>
					</split>
					<split pos="right">
						<feature> 16 </feature>
						<threshold> 0.44602966 </threshold>
						<split pos="left">
							<output> 2.0 </output>
						</split>
						<split pos="right">
							<feature> 2 </feature>
							<threshold> 0.98828125 </threshold>
							<split pos="left">
								<output> 1.9727438688278198 </output>
							</split>
							<split pos="right">
								<output> 1.9916950464248657 </output>
							</split>
						</split>
					</split>
				</split>
			</split>
		</split>
	</tree>
	<tree id="2" weight="0.1">
		<split>
			<feature> 17 </feature>
			<threshold> 0.99609375 </threshold>
			<split pos="left">
				<output> -1.713263988494873 </output>
			</split>
			<split pos="right">
				<feature> 2 </feature>
				<threshold> 0.9921875 </threshold>
				<split pos="left">
					<feature> 2 </feature>
					<threshold> 0.234375 </threshold>
					<split pos="left">
						<output> 1.55111563205719 </output>
					</split>
					<split pos="right">
						<feature> 15 </feature>
						<threshold> 0.100237936 </threshold>
						<split pos="left">
							<output> 1.727396845817566 </output>
						</split>
						<split pos="right">
							<feature> 16 </feature>
							<threshold> 0.4577332 </threshold>
							<split pos="left">
								<feature> 1 </feature>
								<threshold> 0.93359375 </threshold>
								<split pos="left">
									<output> 1.7348815202713013 </output>
								</split>
								<split pos="right">
									<output> 1.7214386463165283 </output>
								</split>
							</split>
							<split pos="right">
								<output> 1.6658647060394287 </output>
							</split>
						</split>
					</split>
				</split>
				<split pos="right">
					<feature> 15 </feature>
					<threshold> 0.108028084 </threshold>
					<split pos="left">
						<output> 1.7369320392608643 </output>
					</split>
					<split pos="right">
						<feature> 14 </feature>
						<threshold> 0.39119673 </threshold>
						<split pos="left">
							<feature> 5 </feature>
							<threshold> 0.62890625 </threshold>
							<split pos="left">
								<output> 1.7394883632659912 </output>
							</split>
							<split pos="right">
								<output> 1.738204002380371 </output>
							</split>
						</split>
						<split pos="right">
							<output> 1.7352713346481323 </output>
						</split>
					</split>
				</split>
			</split>
		</split>
	</tree>
	<tree id="3" weight="0.1">
		<split>
			<feature> 17 </feature>
			<threshold> 0.99609375 </threshold>
			<split pos="left">
				<output> -1.5160934925079346 </output>
			</split>
			<split pos="right">
				<feature> 2 </feature>
				<threshold> 0.9921875 </threshold>
				<split pos="left">
					<feature> 2 </feature>
					<threshold> 0.234375 </threshold>
					<split pos="left">
						<output> 1.3239275217056274 </output>
					</split>
					<split pos="right">
						<feature> 15 </feature>
						<threshold> 0.100237936 </threshold>
						<split pos="left">
							<output> 1.5113561153411865 </output>
						</split>
						<split pos="right">
							<feature> 16 </feature>
							<threshold> 0.4577332 </threshold>
							<split pos="left">
								<feature> 1 </feature>
								<threshold> 0.93359375 </threshold>
								<split pos="left">
									<output> 1.5179028511047363 </output>
								</split>
								<split pos="right">
									<output> 1.5046708583831787 </output>
								</split>
							</split>
							<split pos="right">
								<output> 1.4470844268798828 </output>
							</split>
						</split>
					</split>
				</split>
				<split pos="right">
					<feature> 15 </feature>
					<threshold> 0.108028084 </threshold>
					<split pos="left">
						<output> 1.5200904607772827 </output>
					</split>
					<split pos="right">
						<feature> 14 </feature>
						<threshold> 0.39119673 </threshold>
						<split pos="left">
							<feature> 8 </feature>
							<threshold> 0.23828125 </threshold>
							<split pos="left">
								<output> 1.522309422492981 </output>
							</split>
							<split pos="right">
								<output> 1.5234332084655762 </output>
							</split>
						</split>
						<split pos="right">
							<output> 1.5189387798309326 </output>
						</split>
					</split>
				</split>
			</split>
		</split>
	</tree>
	<tree id="4" weight="0.1">
		<split>
			<feature> 17 </feature>
			<threshold> 0.99609375 </threshold>
			<split pos="left">
				<output> -1.3775943517684937 </output>
			</split>
			<split pos="right">
				<feature> 2 </feature>
				<threshold> 0.9921875 </threshold>
				<split pos="left">
					<feature> 2 </feature>
					<threshold> 0.234375 </threshold>
					<split pos="left">
						<output> 1.168479323387146 </output>
					</split>
					<split pos="right">
						<feature> 15 </feature>
						<threshold> 0.100237936 </threshold>
						<split pos="left">
							<output> 1.3723819255828857 </output>
						</split>
						<split pos="right">
							<feature> 16 </feature>
							<threshold> 0.46553558 </threshold>
							<split pos="left">
								<feature> 1 </feature>
								<threshold> 0.93359375 </threshold>
								<split pos="left">
									<output> 1.3797370195388794 </output>
								</split>
								<split pos="right">
									<output> 1.3652974367141724 </output>
								</split>
							</split>
							<split pos="right">
								<output> 1.2929117679595947 </output>
							</split>
						</split>
					</split>
				</split>
				<split pos="right">
					<feature> 15 </feature>
					<threshold> 0.108028084 </threshold>
					<split pos="left">
						<output> 1.3822611570358276 </output>
					</split>
					<split pos="right">
						<feature> 14 </feature>
						<threshold> 0.39119673 </threshold>
						<split pos="left">
							<feature> 8 </feature>
							<threshold> 0.23828125 </threshold>
							<split pos="left">
								<output> 1.384784460067749 </output>
							</split>
							<split pos="right">
								<output> 1.386014461517334 </output>
							</split>
						</split>
						<split pos="right">
							<output> 1.3810211420059204 </output>
						</split>
					</split>
				</split>
			</split>
		</split>
	</tree>
	<tree id="5" weight="0.1">
		<split>
			<feature> 17 </feature>
			<threshold> 0.99609375 </threshold>
			<split pos="left">
				<output> -1.2830575704574585 </output>
			</split>
			<split pos="right">
				<feature> 2 </feature>
				<threshold> 0.9921875 </threshold>
				<split pos="left">
					<feature> 2 </feature>
					<threshold> 0.234375 </threshold>
					<split pos="left">
						<output> 1.0477044582366943 </output>
					</split>
					<split pos="right">
						<feature> 15 </feature>
						<threshold> 0.100237936 </threshold>
						<split pos="left">
							<output> 1.2767374515533447 </output>
						</split>
						<split pos="right">
							<feature> 15 </feature>
							<threshold> 0.55985624 </threshold>
							<split pos="left">
								<feature> 1 </feature>
								<threshold> 0.93359375 </threshold>
								<split pos="left">
									<output> 1.2854580879211426 </output>
								</split>
								<split pos="right">
									<output> 1.2680981159210205 </output>
								</split>
							</split>
							<split pos="right">
								<output> 1.070529818534851 </output>
							</split>
						</split>
					</split>
				</split>
				<split pos="right">
					<feature> 15 </feature>
					<threshold> 0.108028084 </threshold>
					<split pos="left">
						<output> 1.2882120609283447 </output>
					</split>
					<split pos="right">
						<feature> 14 </feature>
						<threshold> 0.39119673 </threshold>
						<split pos="left">
							<feature> 8 </feature>
							<threshold> 0.23828125 </threshold>
							<split pos="left">
								<output> 1.291149377822876 </output>
							</split>
							<split pos="right">
								<output> 1.2925453186035156 </output>
							</split>
						</split>
						<split pos="right">
							<output> 1.2868133783340454 </output>
						</split>
					</split>
				</split>
			</split>
		</split>
	</tree>
	<tree id="6" weight="0.1">
		<split>
			<feature> 17 </feature>
			<threshold> 0.99609375 </threshold>
			<split pos="left">
				<output> -1.214937448501587 </output>
			</split>
			<split pos="right">
				<feature> 2 </feature>
				<threshold> 0.9921875 </threshold>
				<split pos="left">
					<feature> 2 </feature>
					<threshold> 0.234375 </threshold>
					<split pos="left">
						<output> 0.9455359578132629 </output>
					</split>
					<split pos="right">
						<feature> 15 </feature>
						<threshold> 0.100237936 </threshold>
						<split pos="left">
							<output> 1.2071954011917114 </output>
						</split>
						<split pos="right">
							<feature> 15 </feature>
							<threshold> 0.55985624 </threshold>
							<split pos="left">
								<feature> 1 </feature>
								<threshold> 0.93359375 </threshold>
								<split pos="left">
									<output> 1.2173281908035278 </output>
								</split>
								<split pos="right">
									<output> 1.1970735788345337 </output>
								</split>
							</split>
							<split pos="right">
								<output> 0.9738752841949463 </output>
							</split>
						</split>
					</split>
				</split>
				<split pos="right">
					<feature> 15 </feature>
					<threshold> 0.108028084 </threshold>
					<split pos="left">
						<output> 1.2207192182540894 </output>
					</split>
					<split pos="right">
						<feature> 14 </feature>
						<threshold> 0.39119673 </threshold>
						<split pos="left">
							<feature> 8 </feature>
							<threshold> 0.23828125 </threshold>
							<split pos="left">
								<output> 1.2241921424865723 </output>
							</split>
							<split pos="right">
								<output> 1.2258126735687256 </output>
							</split>
						</split>
						<split pos="right">
							<output> 1.2191035747528076 </output>
						</split>
					</split>
				</split>
			</split>
		</split>
	</tree>
	<tree id="7" weight="0.1">
		<split>
			<feature> 17 </feature>
			<threshold> 0.99609375 </threshold>
			<split pos="left">
				<output> -1.1636167764663696 </output>
			</split>
			<split pos="right">
				<feature> 2 </feature>
				<threshold> 0.9921875 </threshold>
				<split pos="left">
					<feature> 2 </feature>
					<threshold> 0.234375 </threshold>
					<split pos="left">
						<output> 0.8529750108718872 </output>
					</split>
					<split pos="right">
						<feature> 15 </feature>
						<threshold> 0.100237936 </threshold>
						<split pos="left">
							<output> 1.1544114351272583 </output>
						</split>
						<split pos="right">
							<feature> 15 </feature>
							<threshold> 0.55985624 </threshold>
							<split pos="left">
								<feature> 1 </feature>
								<threshold> 0.93359375 </threshold>
								<split pos="left">
									<output> 1.1663517951965332 </output>
								</split>
								<split pos="right">
									<output> 1.1424330472946167 </output>
								</split>
							</split>
							<split pos="right">
								<output> 0.8869056701660156 </output>
							</split>
						</split>
					</split>
				</split>
				<split pos="right">
					<feature> 15 </feature>
					<threshold> 0.108028084 </threshold>
					<split pos="left">
						<output> 1.1704984903335571 </output>
					</split>
					<split pos="right">
						<feature> 14 </feature>
						<threshold> 0.39119673 </threshold>
						<split pos="left">
							<feature> 8 </feature>
							<threshold> 0.23828125 </threshold>
							<split pos="left">
								<output> 1.1746389865875244 </output>
							</split>
							<split pos="right">
								<output> 1.176565408706665 </output>
							</split>
						</split>
						<split pos="right">
							<output> 1.1685988903045654 </output>
						</split>
					</split>
				</split>
			</split>
		</split>
	</tree>
	<tree id="8" weight="0.1">
		<split>
			<feature> 17 </feature>
			<threshold> 0.99609375 </threshold>
			<split pos="left">
				<output> -1.124024748802185 </output>
			</split>
			<split pos="right">
				<feature> 2 </feature>
				<threshold> 0.9921875 </threshold>
				<split pos="left">
					<feature> 2 </feature>
					<threshold> 0.13671875 </threshold>
					<split pos="left">
						<output> 0.501477837562561 </output>
					</split>
					<split pos="right">
						<feature> 15 </feature>
						<threshold> 0.100237936 </threshold>
						<split pos="left">
							<output> 1.095047116279602 </output>
						</split>
						<split pos="right">
							<feature> 14 </feature>
							<threshold> 0.19216493 </threshold>
							<split pos="left">
								<feature> 1 </feature>
								<threshold> 0.9296875 </threshold>
								<split pos="left">
									<output> 1.1280802488327026 </output>
								</split>
								<split pos="right">
									<output> 1.101115107536316 </output>
								</split>
							</split>
							<split pos="right">
								<output> 1.031968593597412 </output>
							</split>
						</split>
					</split>
				</split>
				<split pos="right">
					<feature> 15 </feature>
					<threshold> 0.108028084 </threshold>
					<split pos="left">
						<output> 1.132051706314087 </output>
					</split>
					<split pos="right">
						<feature> 14 </feature>
						<threshold> 0.39119673 </threshold>
						<split pos="left">
							<feature> 8 </feature>
							<threshold> 0.23828125 </threshold>
							<split pos="left">
								<output> 1.1370161771774292 </output>
							</split>
							<split pos="right">
								<output> 1.139308214187622 </output>
							</split>
						</split>
						<split pos="right">
							<output> 1.1297932863235474 </output>
						</split>
					</split>
				</split>
			</split>
		</split>
	</tree>
	<tree id="9" weight="0.1">
		<split>
			<feature> 17 </feature>
			<threshold> 0.99609375 </threshold>
			<split pos="left">
				<output> -1.0921250581741333 </output>
			</split>
			<split pos="right">
				<feature> 2 </feature>
				<threshold> 0.9921875 </threshold>
				<split pos="left">
					<feature> 2 </feature>
					<threshold> 0.234375 </threshold>
					<split pos="left">
						<output> 0.6734172701835632 </output>
					</split>
					<split pos="right">
						<feature> 15 </feature>
						<threshold> 0.100237936 </threshold>
						<split pos="left">
							<output> 1.0790396928787231 </output>
						</split>
						<split pos="right">
							<feature> 15 </feature>
							<threshold> 0.55985624 </threshold>
							<split pos="left">
								<feature> 1 </feature>
								<threshold> 0.93359375 </threshold>
								<split pos="left">
									<output> 1.0958904027938843 </output>
								</split>
								<split pos="right">
									<output> 1.0619772672653198 </output>
								</split>
							</split>
							<split pos="right">
								<output> 0.7119219899177551 </output>
							</split>
						</split>
					</split>
				</split>
				<split pos="right">
					<feature> 15 </feature>
					<threshold> 0.108028084 </threshold>
					<split pos="left">
						<output> 1.1018755435943604 </output>
					</split>
					<split pos="right">
						<feature> 14 </feature>
						<threshold> 0.39119673 </threshold>
						<split pos="left">
							<feature> 8 </feature>
							<threshold> 0.23828125 </threshold>
							<split pos="left">
								<output> 1.1078503131866455 </output>
							</split>
							<split pos="right">
								<output> 1.110595703125 </output>
							</split>
						</split>
						<split pos="right">
							<output> 1.0991765260696411 </output>
						</split>
					</split>
				</split>
			</split>
		</split>
	</tree>
	<tree id="10" weight="0.1">
		<split>
			<feature> 17 </feature>
			<threshold> 0.99609375 </threshold>
			<split pos="left">
				<output> -1.0660295486450195 </output>
			</split>
			<split pos="right">
				<feature> 2 </feature>
				<threshold> 0.9921875 </threshold>
				<split pos="left">
					<feature> 2 </feature>
					<threshold> 0.11328125 </threshold>
					<split pos="left">
						<output> 0.06885746121406555 </output>
					</split>
					<split pos="right">
						<feature> 15 </feature>
						<threshold> 0.55985624 </threshold>
						<split pos="left">
							<feature> 15 </feature>
							<threshold> 0.100237936 </threshold>
							<split pos="left">
								<output> 1.0257359743118286 </output>
							</split>
							<split pos="right">
								<feature> 1 </feature>
								<threshold> 0.93359375 </threshold>
								<split pos="left">
									<output> 1.063942551612854 </output>
								</split>
								<split pos="right">
									<output> 1.0264155864715576 </output>
								</split>
							</split>
						</split>
						<split pos="right">
							<output> 0.5140547752380371 </output>
						</split>
					</split>
				</split>
				<split pos="right">
					<feature> 15 </feature>
					<threshold> 0.108028084 </threshold>
					<split pos="left">
						<output> 1.0776323080062866 </output>
					</split>
					<split pos="right">
						<feature> 14 </feature>
						<threshold> 0.39119673 </threshold>
						<split pos="left">
							<feature> 8 </feature>
							<threshold> 0.23828125 </threshold>
							<split pos="left">
								<output> 1.0848349332809448 </output>
							</split>
							<split pos="right">
								<output> 1.0881452560424805 </output>
							</split>
						</split>
						<split pos="right">
							<output> 1.0743913650512695 </output>
						</split>
					</split>
				</split>
			</split>
		</split>
	</tree>
	<tree id="11" weight="0.1">
		<split>
			<feature> 17 </feature>
			<threshold> 0.99609375 </threshold>
			<split pos="left">
				<output> -1.043744683265686 </output>
			</split>
			<split pos="right">
				<feature> 2 </feature>
				<threshold> 0.9921875 </threshold>
				<split pos="left">
					<feature> 2 </feature>
					<threshold> 0.11328125 </threshold>
					<split pos="left">
						<output> -0.04341729357838631 </output>
					</split>
					<split pos="right">
						<feature> 15 </feature>
						<threshold> 0.55985624 </threshold>
						<split pos="left">
							<feature> 15 </feature>
							<threshold> 0.100237936 </threshold>
							<split pos="left">
								<output> 0.9954872131347656 </output>
							</split>
							<split pos="right">
								<feature> 1 </feature>
								<threshold> 0.93359375 </threshold>
								<split pos="left">
									<output> 1.040594458580017 </output>
								</split>
								<split pos="right">
									<output> 0.9961872696876526 </output>
								</split>
							</split>
						</split>
						<split pos="right">
							<output> 0.41674548387527466 </output>
						</split>
					</split>
				</split>
				<split pos="right">
					<feature> 15 </feature>
					<threshold> 0.108028084 </threshold>
					<split pos="left">
						<output> 1.0576667785644531 </output>
					</split>
					<split pos="right">
						<feature> 14 </feature>
						<threshold> 0.39119673 </threshold>
						<split pos="left">
							<feature> 8 </feature>
							<threshold> 0.23828125 </threshold>
							<split pos="left">
								<output> 1.0663646459579468 </output>
							</split>
							<split pos="right">
								<output> 1.0703508853912354 </output>
							</split>
						</split>
						<split pos="right">
							<output> 1.0537656545639038 </output>
						</split>
					</split>
				</split>
			</split>
		</split>
	</tree>
	<tree id="12" weight="0.1">
		<split>
			<feature> 17 </feature>
			<threshold> 0.99609375 </threshold>
			<split pos="left">
				<output> -1.0240576267242432 </output>
			</split>
			<split pos="right">
				<feature> 2 </feature>
				<threshold> 0.9921875 </threshold>
				<split pos="left">
					<feature> 2 </feature>
					<threshold> 0.234375 </threshold>
					<split pos="left">
						<output> 0.3814075291156769 </output>
					</split>
					<split pos="right">
						<feature> 15 </feature>
						<threshold> 0.55985624 </threshold>
						<split pos="left">
							<feature> 15 </feature>
							<threshold> 0.100237936 </threshold>
							<split pos="left">
								<output> 1.0013753175735474 </output>
							</split>
							<split pos="right">
								<feature> 1 </feature>
								<threshold> 0.93359375 </threshold>
								<split pos="left">
									<output> 1.0301012992858887 </output>
								</split>
								<split pos="right">
									<output> 0.9716759324073792 </output>
								</split>
							</split>
						</split>
						<split pos="right">
							<output> 0.46268197894096375 </output>
						</split>
					</split>
				</split>
				<split pos="right">
					<feature> 15 </feature>
					<threshold> 0.108028084 </threshold>
					<split pos="left">
						<output> 1.040769100189209 </output>
					</split>
					<split pos="right">
						<feature> 14 </feature>
						<threshold> 0.39119673 </threshold>
						<split pos="left">
							<feature> 8 </feature>
							<threshold> 0.23828125 </threshold>
							<split pos="left">
								<output> 1.051283359527588 </output>
							</split>
							<split pos="right">
								<output> 1.0561020374298096 </output>
							</split>
						</split>
						<split pos="right">
							<output> 1.036065936088562 </output>
						</split>
					</split>
				</split>
			</split>
		</split>
	</tree>
	<tree id="13" weight="0.1">
		<split>
			<feature> 17 </feature>
			<threshold> 0.99609375 </threshold>
			<split pos="left">
				<output> -1.0058975219726562 </output>
			</split>
			<split pos="right">
				<feature> 2 </feature>
				<threshold> 0.9921875 </threshold>
				<split pos="left">
					<feature> 2 </feature>
					<threshold> 0.11328125 </threshold>
					<split pos="left">
						<output> -0.3195553719997406 </output>
					</split>
					<split pos="right">
						<feature> 16 </feature>
						<threshold> 0.56696635 </threshold>
						<split pos="left">
							<feature> 15 </feature>
							<threshold> 0.100237936 </threshold>
							<split pos="left">
								<output> 0.9365318417549133 </output>
							</split>
							<split pos="right">
								<feature> 1 </feature>
								<threshold> 0.93359375 </threshold>
								<split pos="left">
									<output> 1.0008372068405151 </output>
								</split>
								<split pos="right">
									<output> 0.9392306804656982 </output>
								</split>
							</split>
						</split>
						<split pos="right">
							<output> 0.13907940685749054 </output>
						</split>
					</split>
				</split>
				<split pos="right">
					<feature> 15 </feature>
					<threshold> 0.108028084 </threshold>
					<split pos="left">
						<output> 1.0260121822357178 </output>
					</split>
					<split pos="right">
						<feature> 14 </feature>
						<threshold> 0.39119673 </threshold>
						<split pos="left">
							<feature> 8 </feature>
							<threshold> 0.0234375 </threshold>
							<split pos="left">
								<output> 0.7101563811302185 </output>
							</split>
							<split pos="right">
								<output> 1.0433826446533203 </output>
							</split>
						</split>
						<split pos="right">
							<output> 1.0203421115875244 </output>
						</split>
					</split>
				</split>
			</split>
		</split>
	</tree>
	<tree id="14" weight="0.1">
		<split>
			<feature> 17 </feature>
			<threshold> 0.99609375 </threshold>
			<split pos="left">
				<output> -0.9884997606277466 </output>
			</split>
			<split pos="right">
				<feature> 2 </feature>
				<threshold> 0.9921875 </threshold>
				<split pos="left">
					<feature> 2 </feature>
					<threshold> 0.234375 </threshold>
					<split pos="left">
						<output> 0.16665062308311462 </output>
					</split>
					<split pos="right">
						<feature> 16 </feature>
						<threshold> 0.56696635 </threshold>
						<split pos="left">
							<feature> 15 </feature>
							<threshold> 0.100237936 </threshold>
							<split pos="left">
								<output> 0.9559447169303894 </output>
							</split>
							<split pos="right">
								<feature> 1 </feature>
								<threshold> 0.93359375 </threshold>
								<split pos="left">
									<output> 0.9970860481262207 </output>
								</split>
								<split pos="right">
									<output> 0.9153591990470886 </output>
								</split>
							</split>
						</split>
						<split pos="right">
							<output> 0.22378316521644592 </output>
						</split>
					</split>
				</split>
				<split pos="right">
					<feature> 15 </feature>
					<threshold> 0.108028084 </threshold>
					<split pos="left">
						<output> 1.012660026550293 </output>
					</split>
					<split pos="right">
						<feature> 14 </feature>
						<threshold> 0.39119673 </threshold>
						<split pos="left">
							<feature> 13 </feature>
							<threshold> 0.375 </threshold>
							<split pos="left">
								<output> 0.7818780541419983 </output>
							</split>
							<split pos="right">
								<output> 1.0339961051940918 </output>
							</split>
						</split>
						<split pos="right">
							<output> 1.005826473236084 </output>
						</split>
					</split>
				</split>
			</split>
		</split>
	</tree>
	<tree id="15" weight="0.1">
		<split>
			<feature> 17 </feature>
			<threshold> 0.99609375 </threshold>
			<split pos="left">
				<output> -0.9711548089981079 </output>
			</split>
			<split pos="right">
				<feature> 2 </feature>
				<threshold> 0.9921875 </threshold>
				<split pos="left">
					<feature> 2 </feature>
					<threshold> 0.11328125 </threshold>
					<split pos="left">
						<output> -0.5741277933120728 </output>
					</split>
					<split pos="right">
						<feature> 16 </feature>
						<threshold> 0.56696635 </threshold>
						<split pos="left">
							<feature> 15 </feature>
							<threshold> 0.100237936 </threshold>
							<split pos="left">
								<output> 0.8721526265144348 </output>
							</split>
							<split pos="right">
								<feature> 1 </feature>
								<threshold> 0.93359375 </threshold>
								<split pos="left">
									<output> 0.9635933637619019 </output>
								</split>
								<split pos="right">
									<output> 0.8759883046150208 </output>
								</split>
							</split>
						</split>
						<split pos="right">
							<output> -0.08960102498531342 </output>
						</split>
					</split>
				</split>
				<split pos="right">
					<feature> 15 </feature>
					<threshold> 0.108028084 </threshold>
					<split pos="left">
						<output> 1.0001047849655151 </output>
					</split>
					<split pos="right">
						<feature> 14 </feature>
						<threshold> 0.5238848 </threshold>
						<split pos="left">
							<feature> 8 </feature>
							<threshold> 0.0234375 </threshold>
							<split pos="left">
								<output> 0.5561297535896301 </output>
							</split>
							<split pos="right">
								<output> 1.0255476236343384 </output>
							</split>
						</split>
						<split pos="right">
							<output> 0.9498898386955261 </output>
						</split>
					</split>
				</split>
			</split>
		</split>
	</tree>
	<tree id="16" weight="0.1">
		<split>
			<feature> 17 </feature>
			<threshold> 0.99609375 </threshold>
			<split pos="left">
				<output> -0.9531855583190918 </output>
			</split>
			<split pos="right">
				<feature> 2 </feature>
				<threshold> 0.9921875 </threshold>
				<split pos="left">
					<feature> 2 </feature>
					<threshold> 0.234375 </threshold>
					<split pos="left">
						<output> -0.05721304565668106 </output>
					</split>
					<split pos="right">
						<feature> 16 </feature>
						<threshold> 0.56696635 </threshold>
						<split pos="left">
							<feature> 15 </feature>
							<threshold> 0.100237936 </threshold>
							<split pos="left">
								<output> 0.9070860743522644 </output>
							</split>
							<split pos="right">
								<feature> 1 </feature>
								<threshold> 0.93359375 </threshold>
								<split pos="left">
									<output> 0.9653070569038391 </output>
								</split>
								<split pos="right">
									<output> 0.8495799899101257 </output>
								</split>
							</split>
						</split>
						<split pos="right">
							<output> 0.04033762961626053 </output>
						</split>
					</split>
				</split>
				<split pos="right">
					<feature> 15 </feature>
					<threshold> 0.108028084 </threshold>
					<split pos="left">
						<output> 0.9878171682357788 </output>
					</split>
					<split pos="right">
						<feature> 14 </feature>
						<threshold> 0.5355926 </threshold>
						<split pos="left">
							<feature> 13 </feature>
							<threshold> 0.375 </threshold>
							<split pos="left">
								<output> 0.6608702540397644 </output>
							</split>
							<split pos="right">
								<output> 1.0190167427062988 </output>
							</split>
						</split>
						<split pos="right">
							<output> 0.9279037117958069 </output>
						</split>
					</split>
				</split>
			</split>
		</split>
	</tree>
	<tree id="17" weight="0.1">
		<split>
			<feature> 17 </feature>
			<threshold> 0.99609375 </threshold>
			<split pos="left">
				<output> -0.9339169859886169 </output>
			</split>
			<split pos="right">
				<feature> 2 </feature>
				<threshold> 0.921875 </threshold>
				<split pos="left">
					<feature> 13 </feature>
					<threshold> 0.37109375 </threshold>
					<split pos="left">
						<output> -1.1374180316925049 </output>
					</split>
					<split pos="right">
						<feature> 14 </feature>
						<threshold> 0.19216493 </threshold>
						<split pos="left">
							<feature> 15 </feature>
							<threshold> 0.100237936 </threshold>
							<split pos="left">
								<output> 0.8795575499534607 </output>
							</split>
							<split pos="right">
								<feature> 1 </feature>
								<threshold> 0.703125 </threshold>
								<split pos="left">
									<output> 0.9456599354743958 </output>
								</split>
								<split pos="right">
									<output> 0.8887841105461121 </output>
								</split>
							</split>
						</split>
						<split pos="right">
							<output> 0.17858512699604034 </output>
						</split>
					</split>
				</split>
				<split pos="right">
					<feature> 15 </feature>
					<threshold> 0.108028084 </threshold>
					<split pos="left">
						<output> 0.9742441773414612 </output>
					</split>
					<split pos="right">
						<feature> 14 </feature>
						<threshold> 0.5238848 </threshold>
						<split pos="left">
							<feature> 8 </feature>
							<threshold> 0.0234375 </threshold>
							<split pos="left">
								<output> 0.0030977074056863785 </output>
							</split>
							<split pos="right">
								<output> 1.0127172470092773 </output>
							</split>
						</split>
						<split pos="right">
							<output> 0.9075907468795776 </output>
						</split>
					</split>
				</split>
			</split>
		</split>
	</tree>
	<tree id="18" weight="0.1">
		<split>
			<feature> 17 </feature>
			<threshold> 0.99609375 </threshold>
			<split pos="left">
				<output> -0.9130135178565979 </output>
			</split>
			<split pos="right">
				<feature> 2 </feature>
				<threshold> 0.921875 </threshold>
				<split pos="left">
					<feature> 2 </feature>
					<threshold> 0.11328125 </threshold>
					<split pos="left">
						<output> -0.9542120695114136 </output>
					</split>
					<split pos="right">
						<feature> 16 </feature>
						<threshold> 0.56696635 </threshold>
						<split pos="left">
							<feature> 13 </feature>
							<threshold> 0.37109375 </threshold>
							<split pos="left">
								<output> -0.4202881455421448 </output>
							</split>
							<split pos="right">
								<feature> 15 </feature>
								<threshold> 0.100237936 </threshold>
								<split pos="left">
									<output> 0.8461329340934753 </output>
								</split>
								<split pos="right">
									<feature> 1 </feature>
									<threshold> 0.93359375 </threshold>
									<split pos="left">
										<output> 0.9247661828994751 </output>
									</split>
									<split pos="right">
										<output> 0.7004304528236389 </output>
									</split>
								</split>
							</split>
						</split>
						<split pos="right">
							<output> -0.5863518118858337 </output>
						</split>
					</split>
				</split>
				<split pos="right">
					<feature> 15 </feature>
					<threshold> 0.108028084 </threshold>
					<split pos="left">
						<output> 0.9608825445175171 </output>
					</split>
					<split pos="right">
						<feature> 14 </feature>
						<threshold> 0.5238848 </threshold>
						<split pos="left">
							<output> 1.004037857055664 </output>
						</split>
						<split pos="right">
							<output> 0.8815943002700806 </output>
						</split>
					</split>
				</split>
			</split>
		</split>
	</tree>
	<tree id="19" weight="0.1">
		<split>
			<feature> 17 </feature>
			<threshold> 0.99609375 </threshold>
			<split pos="left">
				<output> -0.8898085355758667 </output>
			</split>
			<split pos="right">
				<feature> 2 </feature>
				<threshold> 0.66015625 </threshold>
				<split pos="left">
					<feature> 14 </feature>
					<threshold> 0.21558043 </threshold>
					<split pos="left">
						<feature> 13 </feature>
						<threshold> 0.3828125 </threshold>
						<split pos="left">
							<output> -0.9266705513000488 </output>
						</split>
						<split pos="right">
							<feature> 8 </feature>
							<threshold> 0.203125 </threshold>
							<split pos="left">
								<output> 0.6435920000076294 </output>
							</split>
							<split pos="right">
								<output> 0.8671749830245972 </output>
							</split>
						</split>
					</split>
					<split pos="right">
						<output> -1.3748077154159546 </output>
					</split>
				</split>
				<split pos="right">
					<feature> 2 </feature>
					<threshold> 0.9921875 </threshold>
					<split pos="left">
						<output> 0.9216806292533875 </output>
					</split>
					<split pos="right">
						<feature> 16 </feature>
						<threshold> 0.8634563 </threshold>
						<split pos="left">
							<feature> 15 </feature>
							<threshold> 0.108028084 </threshold>
							<split pos="left">
								<output> 0.9480563998222351 </output>
							</split>
							<split pos="right">
								<feature> 13 </feature>
								<threshold> 0.375 </threshold>
								<split pos="left">
									<output> 0.3968105614185333 </output>
								</split>
								<split pos="right">
									<output> 1.0023969411849976 </output>
								</split>
							</split>
						</split>
						<split pos="right">
							<output> 0.5522535443305969 </output>
						</split>
					</split>
				</split>
			</split>
		</split>
	</tree>
	<tree id="20" weight="0.1">
		<split>
			<feature> 17 </feature>
			<threshold> 0.99609375 </threshold>
			<split pos="left">
				<output> -0.863745391368866 </output>
			</split>
			<split pos="right">
				<feature> 2 </feature>
				<threshold> 0.66015625 </threshold>
				<split pos="left">
					<feature> 2 </feature>
					<threshold> 0.11328125 </threshold>
					<split pos="left">
						<feature> 14 </feature>
						<threshold> 0.09460032 </threshold>
						<split pos="left">
							<output> 0.17790648341178894 </output>
						</split>
						<split pos="right">
							<output> -9.38598918914795 </output>
						</split>
					</split>
					<split pos="right">
						<feature> 16 </feature>
						<threshold> 0.7737291 </threshold>
						<split pos="left">
							<feature> 8 </feature>
							<threshold> 0.1875 </threshold>
							<split pos="left">
								<output> 0.26648518443107605 </output>
							</split>
							<split pos="right">
								<output> 0.7679079174995422 </output>
							</split>
						</split>
						<split pos="right">
							<output> -5.1361565589904785 </output>
						</split>
					</split>
				</split>
				<split pos="right">
					<feature> 2 </feature>
					<threshold> 0.9921875 </threshold>
					<split pos="left">
						<output> 0.9006049036979675 </output>
					</split>
					<split pos="right">
						<feature> 16 </feature>
						<threshold> 0.8634563 </threshold>
						<split pos="left">
							<feature> 15 </feature>
							<threshold> 0.108028084 </threshold>
							<split pos="left">
								<output> 0.9324616193771362 </output>
							</split>
							<split pos="right">
								<output> 0.9939833879470825 </output>
							</split>
						</split>
						<split pos="right">
							<output> 0.4805324971675873 </output>
						</split>
					</split>
				</split>
			</split>
		</split>
	</tree>
	<tree id="21" weight="0.1">
		<split>
			<feature> 17 </feature>
			<threshold> 0.99609375 </threshold>
			<split pos="left">
				<output> -0.8355283737182617 </output>
			</split>
			<split pos="right">
				<feature> 2 </feature>
				<threshold> 0.31640625 </threshold>
				<split pos="left">
					<feature> 14 </feature>
					<threshold> 0.23509336 </threshold>
					<split pos="left">
						<feature> 13 </feature>
						<threshold> 0.265625 </threshold>
						<split pos="left">
							<output> -5.638980865478516 </output>
						</split>
						<split pos="right">
							<feature> 13 </feature>
							<threshold> 0.2734375 </threshold>
							<split pos="left">
								<output> 1.0551756620407104 </output>
							</split>
							<split pos="right">
								<output> 0.4346301853656769 </output>
							</split>
						</split>
					</split>
					<split pos="right">
						<output> -5.709430694580078 </output>
					</split>
				</split>
				<split pos="right">
					<feature> 2 </feature>
					<threshold> 0.9921875 </threshold>
					<split pos="left">
						<feature> 8 </feature>
						<threshold> 0.0390625 </threshold>
						<split pos="left">
							<output> -0.556463897228241 </output>
						</split>
						<split pos="right">
							<feature> 9 </feature>
							<threshold> 0.609375 </threshold>
							<split pos="left">
								<output> 0.846412181854248 </output>
							</split>
							<split pos="right">
								<output> -0.44212034344673157 </output>
							</split>
						</split>
					</split>
					<split pos="right">
						<feature> 14 </feature>
						<threshold> 0.754139 </threshold>
						<split pos="left">
							<output> 0.9783668518066406 </output>
						</split>
						<split pos="right">
							<output> 0.4511321485042572 </output>
						</split>
					</split>
				</split>
			</split>
		</split>
	</tree>
	<tree id="22" weight="0.1">
		<split>
			<feature> 17 </feature>
			<threshold> 0.99609375 </threshold>
			<split pos="left">
				<feature> 17 </feature>
				<threshold> 0.62890625 </threshold>
				<split pos="left">
					<output> -0.8695394396781921 </output>
				</split>
				<split pos="right">
					<output> 15.37558650970459 </output>
				</split>
			</split>
			<split pos="right">
				<feature> 2 </feature>
				<threshold> 0.31640625 </threshold>
				<split pos="left">
					<feature> 15 </feature>
					<threshold> 0.3612079 </threshold>
					<split pos="left">
						<feature> 13 </feature>
						<threshold> 0.4453125 </threshold>
						<split pos="left">
							<output> -1.1708022356033325 </output>
						</split>
						<split pos="right">
							<output> 0.5893492698669434 </output>
						</split>
					</split>
					<split pos="right">
						<output> -4.472488880157471 </output>
					</split>
				</split>
				<split pos="right">
					<feature> 2 </feature>
					<threshold> 0.9921875 </threshold>
					<split pos="left">
						<feature> 16 </feature>
						<threshold> 0.6293853 </threshold>
						<split pos="left">
							<feature> 16 </feature>
							<threshold> 0.11442856 </threshold>
							<split pos="left">
								<output> 0.6801084280014038 </output>
							</split>
							<split pos="right">
								<output> 0.8228006362915039 </output>
							</split>
						</split>
						<split pos="right">
							<output> -0.3962072730064392 </output>
						</split>
					</split>
					<split pos="right">
						<feature> 15 </feature>
						<threshold> 0.108028084 </threshold>
						<split pos="left">
							<output> 0.894808828830719 </output>
						</split>
						<split pos="right">
							<output> 0.9781630039215088 </output>
						</split>
					</split>
				</split>
			</split>
		</split>
	</tree>
	<tree id="23" weight="0.1">
		<split>
			<feature> 17 </feature>
			<threshold> 0.984375 </threshold>
			<split pos="left">
				<feature> 2 </feature>
				<threshold> 0.99609375 </threshold>
				<split pos="left">
					<feature> 17 </feature>
					<threshold> 0.4296875 </threshold>
					<split pos="left">
						<output> -0.9128311276435852 </output>
					</split>
					<split pos="right">
						<feature> 9 </feature>
						<threshold> 0.67578125 </threshold>
						<split pos="left">
							<output> 1.487709641456604 </output>
						</split>
						<split pos="right">
							<output> 1.0780203342437744 </output>
						</split>
					</split>
				</split>
				<split pos="right">
					<feature> 17 </feature>
					<threshold> 0.640625 </threshold>
					<split pos="left">
						<output> 4.458563327789307 </output>
					</split>
					<split pos="right">
						<feature> 17 </feature>
						<threshold> 0.6484375 </threshold>
						<split pos="left">
							<output> 1.2321852445602417 </output>
						</split>
						<split pos="right">
							<output> 1.79265296459198 </output>
						</split>
					</split>
				</split>
			</split>
			<split pos="right">
				<feature> 13 </feature>
				<threshold> 0.546875 </threshold>
				<split pos="left">
					<output> 0.1861003339290619 </output>
				</split>
				<split pos="right">
					<feature> 17 </feature>
					<threshold> 0.98828125 </threshold>
					<split pos="left">
						<output> 1.1494852304458618 </output>
					</split>
					<split pos="right">
						<feature> 16 </feature>
						<threshold> 0.77763027 </threshold>
						<split pos="left">
							<output> 0.9332581758499146 </output>
						</split>
						<split pos="right">
							<output> -0.057356417179107666 </output>
						</split>
					</split>
				</split>
			</split>
		</split>
	</tree>
	<tree id="24" weight="0.1">
		<split>
			<feature> 2 </feature>
			<threshold> 0.99609375 </threshold>
			<split pos="left">
				<feature> 17 </feature>
				<threshold> 0.984375 </threshold>
				<split pos="left">
					<output> -0.9002513885498047 </output>
				</split>
				<split pos="right">
					<output> 0.5344986915588379 </output>
				</split>
			</split>
			<split pos="right">
				<feature> 8 </feature>
				<threshold> 0.01953125 </threshold>
				<split pos="left">
					<feature> 10 </feature>
					<threshold> 0.765625 </threshold>
					<split pos="left">
						<output> 1.247040867805481 </output>
					</split>
					<split pos="right">
						<feature> 1 </feature>
						<threshold> 0.95703125 </threshold>
						<split pos="left">
							<output> 1.5844175815582275 </output>
						</split>
						<split pos="right">
							<output> 1.006434679031372 </output>
						</split>
					</split>
				</split>
				<split pos="right">
					<feature> 13 </feature>
					<threshold> 0.6875 </threshold>
					<split pos="left">
						<output> 0.9596213698387146 </output>
					</split>
					<split pos="right">
						<feature> 17 </feature>
						<threshold> 0.0 </threshold>
						<split pos="left">
							<feature> 6 </feature>
							<threshold> 0.17578125 </threshold>
							<split pos="left">
								<feature> 6 </feature>
								<threshold> 0.140625 </threshold>
								<split pos="left">
									<output> 1.7413265705108643 </output>
								</split>
								<split pos="right">
									<output> 1.584417700767517 </output>
								</split>
							</split>
							<split pos="right">
								<output> 1.5509405136108398 </output>
							</split>
						</split>
						<split pos="right">
							<output> 1.0018936395645142 </output>
						</split>
					</split>
				</split>
			</split>
		</split>
	</tree>
	<tree id="25" weight="0.1">
		<split>
			<feature> 2 </feature>
			<threshold> 0.99609375 </threshold>
			<split pos="left">
				<feature> 17 </feature>
				<threshold> 0.984375 </threshold>
				<split pos="left">
					<output> -0.8634971380233765 </output>
				</split>
				<split pos="right">
					<output> 0.4608115255832672 </output>
				</split>
			</split>
			<split pos="right">
				<feature> 8 </feature>
				<threshold> 0.01953125 </threshold>
				<split pos="left">
					<feature> 10 </feature>
					<threshold> 0.765625 </threshold>
					<split pos="left">
						<output> 1.129495620727539 </output>
					</split>
					<split pos="right">
						<feature> 17 </feature>
						<threshold> 0.0 </threshold>
						<split pos="left">
							<output> 1.455843210220337 </output>
						</split>
						<split pos="right">
							<output> 1.0053176879882812 </output>
						</split>
					</split>
				</split>
				<split pos="right">
					<feature> 13 </feature>
					<threshold> 0.6875 </threshold>
					<split pos="left">
						<output> 0.931466281414032 </output>
					</split>
					<split pos="right">
						<feature> 17 </feature>
						<threshold> 0.0 </threshold>
						<split pos="left">
							<feature> 6 </feature>
							<threshold> 0.17578125 </threshold>
							<split pos="left">
								<feature> 6 </feature>
								<threshold> 0.140625 </threshold>
								<split pos="left">
									<output> 1.5966143608093262 </output>
								</split>
								<split pos="right">
									<output> 1.455843210220337 </output>
								</split>
							</split>
							<split pos="right">
								<output> 1.416114091873169 </output>
							</split>
						</split>
						<split pos="right">
							<output> 1.0004396438598633 </output>
						</split>
					</split>
				</split>
			</split>
		</split>
	</tree>
	<tree id="26" weight="0.1">
		<split>
			<feature> 2 </feature>
			<threshold> 0.99609375 </threshold>
			<split pos="left">
				<feature> 17 </feature>
				<threshold> 0.984375 </threshold>
				<split pos="left">
					<output> -0.8201326131820679 </output>
				</split>
				<split pos="right">
					<feature> 13 </feature>
					<threshold> 0.37109375 </threshold>
					<split pos="left">
						<output> -1.180633783340454 </output>
					</split>
					<split pos="right">
						<output> 0.5781905055046082 </output>
					</split>
				</split>
			</split>
			<split pos="right">
				<feature> 17 </feature>
				<threshold> 0.0 </threshold>
				<split pos="left">
					<feature> 15 </feature>
					<threshold> 0.100237936 </threshold>
					<split pos="left">
						<feature> 13 </feature>
						<threshold> 0.828125 </threshold>
						<split pos="left">
							<output> 1.5064177513122559 </output>
						</split>
						<split pos="right">
							<feature> 13 </feature>
							<threshold> 0.84375 </threshold>
							<split pos="left">
								<output> 1.361482858657837 </output>
							</split>
							<split pos="right">
								<feature> 9 </feature>
								<threshold> 0.16796875 </threshold>
								<split pos="left">
									<output> 1.6906070709228516 </output>
								</split>
								<split pos="right">
									<output> 1.3652383089065552 </output>
								</split>
							</split>
						</split>
					</split>
					<split pos="right">
						<output> 1.0713108777999878 </output>
					</split>
				</split>
				<split pos="right">
					<feature> 17 </feature>
					<threshold> 0.625 </threshold>
					<split pos="left">
						<output> 3.510570764541626 </output>
					</split>
					<split pos="right">
						<output> 0.9632453322410583 </output>
					</split>
				</split>
			</split>
		</split>
	</tree>
	<tree id="27" weight="0.1">
		<split>
			<feature> 2 </feature>
			<threshold> 0.99609375 </threshold>
			<split pos="left">
				<feature> 17 </feature>
				<threshold> 0.984375 </threshold>
				<split pos="left">
					<output> -0.7795925140380859 </output>
				</split>
				<split pos="right">
					<output> 0.3170125484466553 </output>
				</split>
			</split>
			<split pos="right">
				<feature> 8 </feature>
				<threshold> 0.03125 </threshold>
				<split pos="left">
					<feature> 10 </feature>
					<threshold> 0.765625 </threshold>
					<split pos="left">
						<output> 0.9307618141174316 </output>
					</split>
					<split pos="right">
						<feature> 1 </feature>
						<threshold> 0.80859375 </threshold>
						<split pos="left">
							<output> 1.2410643100738525 </output>
						</split>
						<split pos="right">
							<output> 1.1163811683654785 </output>
						</split>
					</split>
				</split>
				<split pos="right">
					<feature> 13 </feature>
					<threshold> 0.6875 </threshold>
					<split pos="left">
						<output> 0.807388961315155 </output>
					</split>
					<split pos="right">
						<feature> 17 </feature>
						<threshold> 0.0 </threshold>
						<split pos="left">
							<feature> 6 </feature>
							<threshold> 0.17578125 </threshold>
							<split pos="left">
								<feature> 6 </feature>
								<threshold> 0.140625 </threshold>
								<split pos="left">
									<output> 1.8923301696777344 </output>
								</split>
								<split pos="right">
									<output> 1.2913002967834473 </output>
								</split>
							</split>
							<split pos="right">
								<output> 1.2346925735473633 </output>
							</split>
						</split>
						<split pos="right">
							<output> 0.979867696762085 </output>
						</split>
					</split>
				</split>
			</split>
		</split>
	</tree>
	<tree id="28" weight="0.1">
		<split>
			<feature> 2 </feature>
			<threshold> 0.99609375 </threshold>
			<split pos="left">
				<feature> 2 </feature>
				<threshold> 0.50390625 </threshold>
				<split pos="left">
					<output> -0.7591996788978577 </output>
				</split>
				<split pos="right">
					<output> 0.9654970169067383 </output>
				</split>
			</split>
			<split pos="right">
				<feature> 8 </feature>
				<threshold> 0.03125 </threshold>
				<split pos="left">
					<feature> 10 </feature>
					<threshold> 0.765625 </threshold>
					<split pos="left">
						<output> 0.8516740202903748 </output>
					</split>
					<split pos="right">
						<feature> 1 </feature>
						<threshold> 0.984375 </threshold>
						<split pos="left">
							<output> 1.2003419399261475 </output>
						</split>
						<split pos="right">
							<output> 1.1096210479736328 </output>
						</split>
					</split>
				</split>
				<split pos="right">
					<feature> 13 </feature>
					<threshold> 0.6875 </threshold>
					<split pos="left">
						<output> 0.7614828944206238 </output>
					</split>
					<split pos="right">
						<feature> 17 </feature>
						<threshold> 0.0 </threshold>
						<split pos="left">
							<feature> 6 </feature>
							<threshold> 0.17578125 </threshold>
							<split pos="left">
								<feature> 6 </feature>
								<threshold> 0.140625 </threshold>
								<split pos="left">
									<output> 1.8210705518722534 </output>
								</split>
								<split pos="right">
									<output> 1.236812949180603 </output>
								</split>
							</split>
							<split pos="right">
								<output> 1.2109811305999756 </output>
							</split>
						</split>
						<split pos="right">
							<output> 0.9717944264411926 </output>
						</split>
					</split>
				</split>
			</split>
		</split>
	</tree>
	<tree id="29" weight="0.1">
		<split>
			<feature> 2 </feature>
			<threshold> 0.99609375 </threshold>
			<split pos="left">
				<feature> 2 </feature>
				<threshold> 0.421875 </threshold>
				<split pos="left">
					<feature> 17 </feature>
					<threshold> 0.9921875 </threshold>
					<split pos="left">
						<output> -0.793952226638794 </output>
					</split>
					<split pos="right">
						<output> -0.5182007551193237 </output>
					</split>
				</split>
				<split pos="right">
					<output> 0.8838420510292053 </output>
				</split>
			</split>
			<split pos="right">
				<feature> 17 </feature>
				<threshold> 0.0 </threshold>
				<split pos="left">
					<feature> 15 </feature>
					<threshold> 0.100237936 </threshold>
					<split pos="left">
						<feature> 13 </feature>
						<threshold> 0.828125 </threshold>
						<split pos="left">
							<output> 1.2995179891586304 </output>
						</split>
						<split pos="right">
							<feature> 13 </feature>
							<threshold> 0.87109375 </threshold>
							<split pos="left">
								<output> 1.1944588422775269 </output>
							</split>
							<split pos="right">
								<feature> 9 </feature>
								<threshold> 0.19921875 </threshold>
								<split pos="left">
									<output> 1.3593814373016357 </output>
								</split>
								<split pos="right">
									<output> 1.2019766569137573 </output>
								</split>
							</split>
						</split>
					</split>
					<split pos="right">
						<output> 0.8192092180252075 </output>
					</split>
				</split>
				<split pos="right">
					<feature> 17 </feature>
					<threshold> 0.625 </threshold>
					<split pos="left">
						<output> 2.0765411853790283 </output>
					</split>
					<split pos="right">
						<output> 0.9261902570724487 </output>
					</split>
				</split>
			</split>
		</split>
	</tree>
	<tree id="30" weight="0.1">
		<split>
			<feature> 2 </feature>
			<threshold> 0.99609375 </threshold>
			<split pos="left">
				<output> -0.552714467048645 </output>
			</split>
			<split pos="right">
				<feature> 6 </feature>
				<threshold> 0.14453125 </threshold>
				<split pos="left">
					<feature> 17 </feature>
					<threshold> 0.0 </threshold>
					<split pos="left">
						<feature> 13 </feature>
						<threshold> 0.6796875 </threshold>
						<split pos="left">
							<output> 3.0864098072052 </output>
						</split>
						<split pos="right">
							<feature> 6 </feature>
							<threshold> 0.140625 </threshold>
							<split pos="left">
								<output> 1.142999291419983 </output>
							</split>
							<split pos="right">
								<output> 1.1590991020202637 </output>
							</split>
						</split>
					</split>
					<split pos="right">
						<output> 0.9955319166183472 </output>
					</split>
				</split>
				<split pos="right">
					<feature> 15 </feature>
					<threshold> 0.47806013 </threshold>
					<split pos="left">
						<feature> 16 </feature>
						<threshold> 0.368006 </threshold>
						<split pos="left">
							<feature> 13 </feature>
							<threshold> 0.375 </threshold>
							<split pos="left">
								<output> -0.014063316397368908 </output>
							</split>
							<split pos="right">
								<feature> 13 </feature>
								<threshold> 0.3828125 </threshold>
								<split pos="left">
									<output> 1.1487610340118408 </output>
								</split>
								<split pos="right">
									<output> 0.9814023375511169 </output>
								</split>
							</split>
						</split>
						<split pos="right">
							<output> 1.0489286184310913 </output>
						</split>
					</split>
					<split pos="right">
						<output> 0.07922586053609848 </output>
					</split>
				</split>
			</split>
		</split>
	</tree>
	<tree id="31" weight="0.1">
		<split>
			<feature> 2 </feature>
			<threshold> 0.99609375 </threshold>
			<split pos="left">
				<feature> 2 </feature>
				<threshold> 0.37109375 </threshold>
				<split pos="left">
					<output> -0.7867706418037415 </output>
				</split>
				<split pos="right">
					<output> 0.7864339351654053 </output>
				</split>
			</split>
			<split pos="right">
				<feature> 6 </feature>
				<threshold> 0.14453125 </threshold>
				<split pos="left">
					<feature> 17 </feature>
					<threshold> 0.0 </threshold>
					<split pos="left">
						<feature> 13 </feature>
						<threshold> 0.6796875 </threshold>
						<split pos="left">
							<output> 0.7571244239807129 </output>
						</split>
						<split pos="right">
							<feature> 6 </feature>
							<threshold> 0.140625 </threshold>
							<split pos="left">
								<output> 1.1234617233276367 </output>
							</split>
							<split pos="right">
								<output> 1.1340683698654175 </output>
							</split>
						</split>
					</split>
					<split pos="right">
						<output> 0.9827119708061218 </output>
					</split>
				</split>
				<split pos="right">
					<feature> 15 </feature>
					<threshold> 0.47806013 </threshold>
					<split pos="left">
						<feature> 16 </feature>
						<threshold> 0.33679652 </threshold>
						<split pos="left">
							<output> 0.9586677551269531 </output>
						</split>
						<split pos="right">
							<feature> 14 </feature>
							<threshold> 0.12191841 </threshold>
							<split pos="left">
								<output> 1.1386221647262573 </output>
							</split>
							<split pos="right">
								<output> 0.9971343278884888 </output>
							</split>
						</split>
					</split>
					<split pos="right">
						<output> 0.1063503548502922 </output>
					</split>
				</split>
			</split>
		</split>
	</tree>
	<tree id="32" weight="0.1">
		<split>
			<feature> 2 </feature>
			<threshold> 0.99609375 </threshold>
			<split pos="left">
				<feature> 2 </feature>
				<threshold> 0.66796875 </threshold>
				<split pos="left">
					<output> -0.6235395669937134 </output>
				</split>
				<split pos="right">
					<output> 0.8439679145812988 </output>
				</split>
			</split>
			<split pos="right">
				<feature> 17 </feature>
				<threshold> 0.0 </threshold>
				<split pos="left">
					<feature> 6 </feature>
					<threshold> 0.14453125 </threshold>
					<split pos="left">
						<feature> 13 </feature>
						<threshold> 0.6796875 </threshold>
						<split pos="left">
							<output> 0.7003750801086426 </output>
						</split>
						<split pos="right">
							<feature> 6 </feature>
							<threshold> 0.140625 </threshold>
							<split pos="left">
								<output> 1.0955804586410522 </output>
							</split>
							<split pos="right">
								<output> 1.1106880903244019 </output>
							</split>
						</split>
					</split>
					<split pos="right">
						<output> 0.806221604347229 </output>
					</split>
				</split>
				<split pos="right">
					<feature> 17 </feature>
					<threshold> 0.3984375 </threshold>
					<split pos="left">
						<output> 0.44788458943367004 </output>
					</split>
					<split pos="right">
						<feature> 17 </feature>
						<threshold> 0.40234375 </threshold>
						<split pos="left">
							<output> 1.1363683938980103 </output>
						</split>
						<split pos="right">
							<feature> 17 </feature>
							<threshold> 0.45703125 </threshold>
							<split pos="left">
								<output> 1.1338489055633545 </output>
							</split>
							<split pos="right">
								<output> 0.9020629525184631 </output>
							</split>
						</split>
					</split>
				</split>
			</split>
		</split>
	</tree>
	<tree id="33" weight="0.1">
		<split>
			<feature> 2 </feature>
			<threshold> 0.99609375 </threshold>
			<split pos="left">
				<feature> 17 </feature>
				<threshold> 0.3828125 </threshold>
				<split pos="left">
					<output> -0.7907168865203857 </output>
				</split>
				<split pos="right">
					<output> 0.3472380042076111 </output>
				</split>
			</split>
			<split pos="right">
				<feature> 17 </feature>
				<threshold> 0.0 </threshold>
				<split pos="left">
					<feature> 6 </feature>
					<threshold> 0.1484375 </threshold>
					<split pos="left">
						<feature> 10 </feature>
						<threshold> 0.609375 </threshold>
						<split pos="left">
							<output> 0.8632999658584595 </output>
						</split>
						<split pos="right">
							<output> 1.1122581958770752 </output>
						</split>
					</split>
					<split pos="right">
						<output> 0.7166144251823425 </output>
					</split>
				</split>
				<split pos="right">
					<feature> 15 </feature>
					<threshold> 0.5559612 </threshold>
					<split pos="left">
						<feature> 17 </feature>
						<threshold> 0.96875 </threshold>
						<split pos="left">
							<feature> 17 </feature>
							<threshold> 0.3984375 </threshold>
							<split pos="left">
								<output> 0.8536631464958191 </output>
							</split>
							<split pos="right">
								<feature> 17 </feature>
								<threshold> 0.40234375 </threshold>
								<split pos="left">
									<output> 1.1193492412567139 </output>
								</split>
								<split pos="right">
									<output> 1.2186472415924072 </output>
								</split>
							</split>
						</split>
						<split pos="right">
							<output> 0.796987771987915 </output>
						</split>
					</split>
					<split pos="right">
						<output> -0.6349489092826843 </output>
					</split>
				</split>
			</split>
		</split>
	</tree>
	<tree id="34" weight="0.1">
		<split>
			<feature> 2 </feature>
			<threshold> 0.99609375 </threshold>
			<split pos="left">
				<feature> 2 </feature>
				<threshold> 0.234375 </threshold>
				<split pos="left">
					<output> -0.8105039000511169 </output>
				</split>
				<split pos="right">
					<output> 0.7259315252304077 </output>
				</split>
			</split>
			<split pos="right">
				<feature> 6 </feature>
				<threshold> 0.15234375 </threshold>
				<split pos="left">
					<feature> 17 </feature>
					<threshold> 0.0 </threshold>
					<split pos="left">
						<feature> 10 </feature>
						<threshold> 0.609375 </threshold>
						<split pos="left">
							<output> 0.8131451606750488 </output>
						</split>
						<split pos="right">
							<output> 1.0995234251022339 </output>
						</split>
					</split>
					<split pos="right">
						<output> 0.8910223245620728 </output>
					</split>
				</split>
				<split pos="right">
					<feature> 16 </feature>
					<threshold> 0.47723913 </threshold>
					<split pos="left">
						<feature> 17 </feature>
						<threshold> 0.9765625 </threshold>
						<split pos="left">
							<feature> 13 </feature>
							<threshold> 0.96875 </threshold>
							<split pos="left">
								<output> 0.9262612462043762 </output>
							</split>
							<split pos="right">
								<feature> 13 </feature>
								<threshold> 0.9921875 </threshold>
								<split pos="left">
									<output> 1.1031650304794312 </output>
								</split>
								<split pos="right">
									<output> 1.1889111995697021 </output>
								</split>
							</split>
						</split>
						<split pos="right">
							<output> 0.7748412489891052 </output>
						</split>
					</split>
					<split pos="right">
						<output> -0.25959551334381104 </output>
					</split>
				</split>
			</split>
		</split>
	</tree>
	<tree id="35" weight="0.1">
		<split>
			<feature> 2 </feature>
			<threshold> 0.99609375 </threshold>
			<split pos="left">
				<feature> 2 </feature>
				<threshold> 0.234375 </threshold>
				<split pos="left">
					<output> -0.7737839818000793 </output>
				</split>
				<split pos="right">
					<feature> 17 </feature>
					<threshold> 0.3671875 </threshold>
					<split pos="left">
						<output> 0.9035784602165222 </output>
					</split>
					<split pos="right">
						<output> 0.6399694085121155 </output>
					</split>
				</split>
			</split>
			<split pos="right">
				<feature> 6 </feature>
				<threshold> 0.15234375 </threshold>
				<split pos="left">
					<feature> 17 </feature>
					<threshold> 0.0 </threshold>
					<split pos="left">
						<feature> 10 </feature>
						<threshold> 0.609375 </threshold>
						<split pos="left">
							<output> 0.7822879552841187 </output>
						</split>
						<split pos="right">
							<output> 1.0858176946640015 </output>
						</split>
					</split>
					<split pos="right">
						<output> 0.8587706089019775 </output>
					</split>
				</split>
				<split pos="right">
					<feature> 15 </feature>
					<threshold> 0.5559612 </threshold>
					<split pos="left">
						<feature> 17 </feature>
						<threshold> 0.9765625 </threshold>
						<split pos="left">
							<feature> 13 </feature>
							<threshold> 0.96875 </threshold>
							<split pos="left">
								<output> 0.837489902973175 </output>
							</split>
							<split pos="right">
								<output> 1.1454246044158936 </output>
							</split>
						</split>
						<split pos="right">
							<output> 0.7592737674713135 </output>
						</split>
					</split>
					<split pos="right">
						<output> -0.7309805154800415 </output>
					</split>
				</split>
			</split>
		</split>
	</tree>
	<tree id="36" weight="0.1">
		<split>
			<feature> 2 </feature>
			<threshold> 0.99609375 </threshold>
			<split pos="left">
				<feature> 2 </feature>
				<threshold> 0.37109375 </threshold>
				<split pos="left">
					<feature> 17 </feature>
					<threshold> 0.9921875 </threshold>
					<split pos="left">
						<output> -0.6873598098754883 </output>
					</split>
					<split pos="right">
						<output> -0.4262281358242035 </output>
					</split>
				</split>
				<split pos="right">
					<output> 0.6815143823623657 </output>
				</split>
			</split>
			<split pos="right">
				<feature> 6 </feature>
				<threshold> 0.15234375 </threshold>
				<split pos="left">
					<feature> 17 </feature>
					<threshold> 0.0 </threshold>
					<split pos="left">
						<feature> 10 </feature>
						<threshold> 0.609375 </threshold>
						<split pos="left">
							<output> 0.663508415222168 </output>
						</split>
						<split pos="right">
							<output> 1.0709558725357056 </output>
						</split>
					</split>
					<split pos="right">
						<output> 0.8302828669548035 </output>
					</split>
				</split>
				<split pos="right">
					<feature> 5 </feature>
					<threshold> 0.95703125 </threshold>
					<split pos="left">
						<feature> 17 </feature>
						<threshold> 0.9765625 </threshold>
						<split pos="left">
							<feature> 13 </feature>
							<threshold> 0.96875 </threshold>
							<split pos="left">
								<output> 0.7521722912788391 </output>
							</split>
							<split pos="right">
								<output> 1.0868293046951294 </output>
							</split>
						</split>
						<split pos="right">
							<output> 0.7423549890518188 </output>
						</split>
					</split>
					<split pos="right">
						<output> -1.018155574798584 </output>
					</split>
				</split>
			</split>
		</split>
	</tree>
	<tree id="37" weight="0.1">
		<split>
			<feature> 2 </feature>
			<threshold> 0.99609375 </threshold>
			<split pos="left">
				<feature> 17 </feature>
				<threshold> 0.3671875 </threshold>
				<split pos="left">
					<output> -0.6864825487136841 </output>
				</split>
				<split pos="right">
					<feature> 14 </feature>
					<threshold> 0.1492365 </threshold>
					<split pos="left">
						<feature> 9 </feature>
						<threshold> 0.671875 </threshold>
						<split pos="left">
							<feature> 13 </feature>
							<threshold> 0.66796875 </threshold>
							<split pos="left">
								<output> 0.11539992690086365 </output>
							</split>
							<split pos="right">
								<output> 1.1698551177978516 </output>
							</split>
						</split>
						<split pos="right">
							<output> 1.0339581966400146 </output>
						</split>
					</split>
					<split pos="right">
						<output> -0.584513247013092 </output>
					</split>
				</split>
			</split>
			<split pos="right">
				<feature> 6 </feature>
				<threshold> 0.1484375 </threshold>
				<split pos="left">
					<feature> 17 </feature>
					<threshold> 0.0 </threshold>
					<split pos="left">
						<output> 0.8786861300468445 </output>
					</split>
					<split pos="right">
						<output> 0.7557628750801086 </output>
					</split>
				</split>
				<split pos="right">
					<feature> 16 </feature>
					<threshold> 0.47723913 </threshold>
					<split pos="left">
						<feature> 17 </feature>
						<threshold> 0.9765625 </threshold>
						<split pos="left">
							<output> 0.9532455801963806 </output>
						</split>
						<split pos="right">
							<output> 0.6776126027107239 </output>
						</split>
					</split>
					<split pos="right">
						<output> -0.44894933700561523 </output>
					</split>
				</split>
			</split>
		</split>
	</tree>
	<tree id="38" weight="0.1">
		<split>
			<feature> 2 </feature>
			<threshold> 0.99609375 </threshold>
			<split pos="left">
				<feature> 17 </feature>
				<threshold> 0.3671875 </threshold>
				<split pos="left">
					<output> -0.6571404337882996 </output>
				</split>
				<split pos="right">
					<feature> 13 </feature>
					<threshold> 0.6796875 </threshold>
					<split pos="left">
						<feature> 17 </feature>
						<threshold> 0.99609375 </threshold>
						<split pos="left">
							<output> 1.4121425151824951 </output>
						</split>
						<split pos="right">
							<output> -0.5199131369590759 </output>
						</split>
					</split>
					<split pos="right">
						<feature> 5 </feature>
						<threshold> 0.40625 </threshold>
						<split pos="left">
							<output> 1.1673578023910522 </output>
						</split>
						<split pos="right">
							<output> 0.01761547662317753 </output>
						</split>
					</split>
				</split>
			</split>
			<split pos="right">
				<feature> 17 </feature>
				<threshold> 0.9765625 </threshold>
				<split pos="left">
					<feature> 14 </feature>
					<threshold> 0.23119077 </threshold>
					<split pos="left">
						<feature> 13 </feature>
						<threshold> 0.79296875 </threshold>
						<split pos="left">
							<output> 0.5091654062271118 </output>
						</split>
						<split pos="right">
							<feature> 17 </feature>
							<threshold> 0.0 </threshold>
							<split pos="left">
								<output> 0.9736768007278442 </output>
							</split>
							<split pos="right">
								<output> 1.1422860622406006 </output>
							</split>
						</split>
					</split>
					<split pos="right">
						<output> -1.557759165763855 </output>
					</split>
				</split>
				<split pos="right">
					<output> 0.5636308193206787 </output>
				</split>
			</split>
		</split>
	</tree>
	<tree id="39" weight="0.1">
		<split>
			<feature> 2 </feature>
			<threshold> 0.99609375 </threshold>
			<split pos="left">
				<feature> 17 </feature>
				<threshold> 0.99609375 </threshold>
				<split pos="left">
					<feature> 17 </feature>
					<threshold> 0.95703125 </threshold>
					<split pos="left">
						<feature> 17 </feature>
						<threshold> 0.59765625 </threshold>
						<split pos="left">
							<output> -0.5433807969093323 </output>
						</split>
						<split pos="right">
							<output> 1.4794589281082153 </output>
						</split>
					</split>
					<split pos="right">
						<output> 1.1207942962646484 </output>
					</split>
				</split>
				<split pos="right">
					<feature> 1 </feature>
					<threshold> 0.1796875 </threshold>
					<split pos="left">
						<output> -5.253932952880859 </output>
					</split>
					<split pos="right">
						<output> -0.09994856268167496 </output>
					</split>
				</split>
			</split>
			<split pos="right">
				<feature> 17 </feature>
				<threshold> 0.9921875 </threshold>
				<split pos="left">
					<feature> 14 </feature>
					<threshold> 0.26241145 </threshold>
					<split pos="left">
						<feature> 13 </feature>
						<threshold> 0.79296875 </threshold>
						<split pos="left">
							<output> 0.48164287209510803 </output>
						</split>
						<split pos="right">
							<feature> 17 </feature>
							<threshold> 0.0 </threshold>
							<split pos="left">
								<output> 0.9549572467803955 </output>
							</split>
							<split pos="right">
								<output> 1.1653331518173218 </output>
							</split>
						</split>
					</split>
					<split pos="right">
						<output> -1.5935547351837158 </output>
					</split>
				</split>
				<split pos="right">
					<output> 0.4989694058895111 </output>
				</split>
			</split>
		</split>
	</tree>
	<tree id="40" weight="0.1">
		<split>
			<feature> 2 </feature>
			<threshold> 0.99609375 </threshold>
			<split pos="left">
				<feature> 2 </feature>
				<threshold> 0.234375 </threshold>
				<split pos="left">
					<output> -0.6529030203819275 </output>
				</split>
				<split pos="right">
					<feature> 17 </feature>
					<threshold> 0.32421875 </threshold>
					<split pos="left">
						<output> 0.945778489112854 </output>
					</split>
					<split pos="right">
						<feature> 16 </feature>
						<threshold> 0.37190717 </threshold>
						<split pos="left">
							<feature> 9 </feature>
							<threshold> 0.359375 </threshold>
							<split pos="left">
								<output> 0.8062624335289001 </output>
							</split>
							<split pos="right">
								<output> 1.1315962076187134 </output>
							</split>
						</split>
						<split pos="right">
							<output> -1.1786203384399414 </output>
						</split>
					</split>
				</split>
			</split>
			<split pos="right">
				<feature> 13 </feature>
				<threshold> 0.078125 </threshold>
				<split pos="left">
					<output> -15.4645357131958 </output>
				</split>
				<split pos="right">
					<feature> 17 </feature>
					<threshold> 0.9921875 </threshold>
					<split pos="left">
						<feature> 6 </feature>
						<threshold> 0.1484375 </threshold>
						<split pos="left">
							<output> 0.8667593002319336 </output>
						</split>
						<split pos="right">
							<feature> 17 </feature>
							<threshold> 0.3828125 </threshold>
							<split pos="left">
								<output> 0.041399333626031876 </output>
							</split>
							<split pos="right">
								<output> 1.0782867670059204 </output>
							</split>
						</split>
					</split>
					<split pos="right">
						<output> 0.44490134716033936 </output>
					</split>
				</split>
			</split>
		</split>
	</tree>
	<tree id="41" weight="0.1">
		<split>
			<feature> 2 </feature>
			<threshold> 0.99609375 </threshold>
			<split pos="left">
				<feature> 17 </feature>
				<threshold> 0.99609375 </threshold>
				<split pos="left">
					<feature> 17 </feature>
					<threshold> 0.81640625 </threshold>
					<split pos="left">
						<output> -0.3833034336566925 </output>
					</split>
					<split pos="right">
						<output> 1.3357203006744385 </output>
					</split>
				</split>
				<split pos="right">
					<feature> 9 </feature>
					<threshold> 0.83203125 </threshold>
					<split pos="left">
						<feature> 1 </feature>
						<threshold> 0.35546875 </threshold>
						<split pos="left">
							<output> -1.302512526512146 </output>
						</split>
						<split pos="right">
							<output> 0.053969621658325195 </output>
						</split>
					</split>
					<split pos="right">
						<output> -2.3468499183654785 </output>
					</split>
				</split>
			</split>
			<split pos="right">
				<feature> 17 </feature>
				<threshold> 0.9921875 </threshold>
				<split pos="left">
					<feature> 15 </feature>
					<threshold> 0.47416505 </threshold>
					<split pos="left">
						<feature> 13 </feature>
						<threshold> 0.79296875 </threshold>
						<split pos="left">
							<output> 0.3446209132671356 </output>
						</split>
						<split pos="right">
							<feature> 6 </feature>
							<threshold> 0.14453125 </threshold>
							<split pos="left">
								<output> 1.014950156211853 </output>
							</split>
							<split pos="right">
								<output> 1.0358612537384033 </output>
							</split>
						</split>
					</split>
					<split pos="right">
						<output> -4.383800983428955 </output>
					</split>
				</split>
				<split pos="right">
					<output> 0.3900343179702759 </output>
				</split>
			</split>
		</split>
	</tree>
	<tree id="42" weight="0.1">
		<split>
			<feature> 2 </feature>
			<threshold> 0.98828125 </threshold>
			<split pos="left">
				<feature> 17 </feature>
				<threshold> 0.9921875 </threshold>
				<split pos="left">
					<feature> 17 </feature>
					<threshold> 0.6640625 </threshold>
					<split pos="left">
						<output> -0.3889729082584381 </output>
					</split>
					<split pos="right">
						<output> 1.2105454206466675 </output>
					</split>
				</split>
				<split pos="right">
					<feature> 1 </feature>
					<threshold> 0.35546875 </threshold>
					<split pos="left">
						<output> -2.1557228565216064 </output>
					</split>
					<split pos="right">
						<feature> 1 </feature>
						<threshold> 0.375 </threshold>
						<split pos="left">
							<output> 1.058760404586792 </output>
						</split>
						<split pos="right">
							<feature> 9 </feature>
							<threshold> 0.9765625 </threshold>
							<split pos="left">
								<output> -0.07249227911233902 </output>
							</split>
							<split pos="right">
								<output> -4.662328720092773 </output>
							</split>
						</split>
					</split>
				</split>
			</split>
			<split pos="right">
				<feature> 13 </feature>
				<threshold> 0.609375 </threshold>
				<split pos="left">
					<output> -0.4793231189250946 </output>
				</split>
				<split pos="right">
					<feature> 17 </feature>
					<threshold> 0.9921875 </threshold>
					<split pos="left">
						<feature> 6 </feature>
						<threshold> 0.14453125 </threshold>
						<split pos="left">
							<output> 0.9859035015106201 </output>
						</split>
						<split pos="right">
							<output> 0.8289492130279541 </output>
						</split>
					</split>
					<split pos="right">
						<output> 0.5159518122673035 </output>
					</split>
				</split>
			</split>
		</split>
	</tree>
	<tree id="43" weight="0.1">
		<split>
			<feature> 12 </feature>
			<threshold> 0.97265625 </threshold>
			<split pos="left">
				<feature> 17 </feature>
				<threshold> 0.32421875 </threshold>
				<split pos="left">
					<output> -0.5561711192131042 </output>
				</split>
				<split pos="right">
					<feature> 17 </feature>
					<threshold> 0.9921875 </threshold>
					<split pos="left">
						<feature> 17 </feature>
						<threshold> 0.81640625 </threshold>
						<split pos="left">
							<output> 1.5360411405563354 </output>
						</split>
						<split pos="right">
							<feature> 2 </feature>
							<threshold> 0.234375 </threshold>
							<split pos="left">
								<output> -2.029686212539673 </output>
							</split>
							<split pos="right">
								<output> 1.2922415733337402 </output>
							</split>
						</split>
					</split>
					<split pos="right">
						<feature> 12 </feature>
						<threshold> 0.0 </threshold>
						<split pos="left">
							<output> -1.2452031373977661 </output>
						</split>
						<split pos="right">
							<feature> 2 </feature>
							<threshold> 0.0234375 </threshold>
							<split pos="left">
								<output> 0.9430438876152039 </output>
							</split>
							<split pos="right">
								<feature> 2 </feature>
								<threshold> 0.046875 </threshold>
								<split pos="left">
									<output> -11.018588066101074 </output>
								</split>
								<split pos="right">
									<output> 0.03159047290682793 </output>
								</split>
							</split>
						</split>
					</split>
				</split>
			</split>
			<split pos="right">
				<feature> 6 </feature>
				<threshold> 0.15234375 </threshold>
				<split pos="left">
					<output> 1.0589518547058105 </output>
				</split>
				<split pos="right">
					<output> 0.5888327956199646 </output>
				</split>
			</split>
		</split>
	</tree>
	<tree id="44" weight="0.1">
		<split>
			<feature> 12 </feature>
			<threshold> 0.97265625 </threshold>
			<split pos="left">
				<feature> 17 </feature>
				<threshold> 0.32421875 </threshold>
				<split pos="left">
					<feature> 2 </feature>
					<threshold> 0.99609375 </threshold>
					<split pos="left">
						<output> -0.49850785732269287 </output>
					</split>
					<split pos="right">
						<output> -0.9720345735549927 </output>
					</split>
				</split>
				<split pos="right">
					<feature> 16 </feature>
					<threshold> 0.36020362 </threshold>
					<split pos="left">
						<feature> 13 </feature>
						<threshold> 0.625 </threshold>
						<split pos="left">
							<feature> 1 </feature>
							<threshold> 0.9765625 </threshold>
							<split pos="left">
								<feature> 13 </feature>
								<threshold> 0.33984375 </threshold>
								<split pos="left">
									<output> -0.9209622740745544 </output>
								</split>
								<split pos="right">
									<output> 0.6792066693305969 </output>
								</split>
							</split>
							<split pos="right">
								<output> -3.917505979537964 </output>
							</split>
						</split>
						<split pos="right">
							<feature> 1 </feature>
							<threshold> 0.5859375 </threshold>
							<split pos="left">
								<output> 1.2656880617141724 </output>
							</split>
							<split pos="right">
								<output> 0.7929625511169434 </output>
							</split>
						</split>
					</split>
					<split pos="right">
						<output> -0.7285686135292053 </output>
					</split>
				</split>
			</split>
			<split pos="right">
				<feature> 6 </feature>
				<threshold> 0.15234375 </threshold>
				<split pos="left">
					<output> 1.0371040105819702 </output>
				</split>
				<split pos="right">
					<output> 0.5120921730995178 </output>
				</split>
			</split>
		</split>
	</tree>
	<tree id="45" weight="0.1">
		<split>
			<feature> 12 </feature>
			<threshold> 0.97265625 </threshold>
			<split pos="left">
				<feature> 17 </feature>
				<threshold> 0.99609375 </threshold>
				<split pos="left">
					<feature> 17 </feature>
					<threshold> 0.81640625 </threshold>
					<split pos="left">
						<feature> 17 </feature>
						<threshold> 0.32421875 </threshold>
						<split pos="left">
							<feature> 2 </feature>
							<threshold> 0.99609375 </threshold>
							<split pos="left">
								<output> -0.44675812125205994 </output>
							</split>
							<split pos="right">
								<output> -0.9107059240341187 </output>
							</split>
						</split>
						<split pos="right">
							<output> 1.4025381803512573 </output>
						</split>
					</split>
					<split pos="right">
						<output> 1.0912575721740723 </output>
					</split>
				</split>
				<split pos="right">
					<feature> 13 </feature>
					<threshold> 0.5 </threshold>
					<split pos="left">
						<feature> 8 </feature>
						<threshold> 0.79296875 </threshold>
						<split pos="left">
							<output> -0.8779745697975159 </output>
						</split>
						<split pos="right">
							<output> -26.90974998474121 </output>
						</split>
					</split>
					<split pos="right">
						<output> 0.05602608621120453 </output>
					</split>
				</split>
			</split>
			<split pos="right">
				<feature> 6 </feature>
				<threshold> 0.15234375 </threshold>
				<split pos="left">
					<output> 1.033976435661316 </output>
				</split>
				<split pos="right">
					<feature> 17 </feature>
					<threshold> 0.18359375 </threshold>
					<split pos="left">
						<output> -0.33380743861198425 </output>
					</split>
					<split pos="right">
						<output> 0.6208242177963257 </output>
					</split>
				</split>
			</split>
		</split>
	</tree>
	<tree id="46" weight="0.1">
		<split>
			<feature> 12 </feature>
			<threshold> 0.97265625 </threshold>
			<split pos="left">
				<feature> 17 </feature>
				<threshold> 0.32421875 </threshold>
				<split pos="left">
					<output> -0.4799232482910156 </output>
				</split>
				<split pos="right">
					<feature> 17 </feature>
					<threshold> 0.9921875 </threshold>
					<split pos="left">
						<feature> 2 </feature>
						<threshold> 0.234375 </threshold>
						<split pos="left">
							<output> -0.6691803336143494 </output>
						</split>
						<split pos="right">
							<feature> 17 </feature>
							<threshold> 0.81640625 </threshold>
							<split pos="left">
								<output> 1.8127471208572388 </output>
							</split>
							<split pos="right">
								<output> 1.2401748895645142 </output>
							</split>
						</split>
					</split>
					<split pos="right">
						<feature> 8 </feature>
						<threshold> 0.02734375 </threshold>
						<split pos="left">
							<output> -5.547778129577637 </output>
						</split>
						<split pos="right">
							<feature> 9 </feature>
							<threshold> 0.70703125 </threshold>
							<split pos="left">
								<feature> 8 </feature>
								<threshold> 0.24609375 </threshold>
								<split pos="left">
									<output> -0.6165313124656677 </output>
								</split>
								<split pos="right">
									<output> 0.48125192523002625 </output>
								</split>
							</split>
							<split pos="right">
								<output> -1.53232741355896 </output>
							</split>
						</split>
					</split>
				</split>
			</split>
			<split pos="right">
				<feature> 6 </feature>
				<threshold> 0.15234375 </threshold>
				<split pos="left">
					<output> 1.030319333076477 </output>
				</split>
				<split pos="right">
					<output> 0.44845643639564514 </output>
				</split>
			</split>
		</split>
	</tree>
	<tree id="47" weight="0.1">
		<split>
			<feature> 13 </feature>
			<threshold> 0.86328125 </threshold>
			<split pos="left">
				<feature> 17 </feature>
				<threshold> 0.9921875 </threshold>
				<split pos="left">
					<feature> 17 </feature>
					<threshold> 0.79296875 </threshold>
					<split pos="left">
						<feature> 17 </feature>
						<threshold> 0.32421875 </threshold>
						<split pos="left">
							<feature> 2 </feature>
							<threshold> 0.99609375 </threshold>
							<split pos="left">
								<output> -0.4252454340457916 </output>
							</split>
							<split pos="right">
								<output> -0.3076913356781006 </output>
							</split>
						</split>
						<split pos="right">
							<feature> 2 </feature>
							<threshold> 0.12890625 </threshold>
							<split pos="left">
								<output> -0.7084103226661682 </output>
							</split>
							<split pos="right">
								<output> 1.3720743656158447 </output>
							</split>
						</split>
					</split>
					<split pos="right">
						<output> 0.9609635472297668 </output>
					</split>
				</split>
				<split pos="right">
					<feature> 8 </feature>
					<threshold> 0.24609375 </threshold>
					<split pos="left">
						<output> -1.0094605684280396 </output>
					</split>
					<split pos="right">
						<output> 0.19246751070022583 </output>
					</split>
				</split>
			</split>
			<split pos="right">
				<feature> 14 </feature>
				<threshold> 0.18826234 </threshold>
				<split pos="left">
					<feature> 17 </feature>
					<threshold> 0.9921875 </threshold>
					<split pos="left">
						<output> 1.197991132736206 </output>
					</split>
					<split pos="right">
						<output> 0.3766527473926544 </output>
					</split>
				</split>
				<split pos="right">
					<output> -0.054326970130205154 </output>
				</split>
			</split>
		</split>
	</tree>
	<tree id="48" weight="0.1">
		<split>
			<feature> 13 </feature>
			<threshold> 0.6796875 </threshold>
			<split pos="left">
				<feature> 17 </feature>
				<threshold> 0.98046875 </threshold>
				<split pos="left">
					<feature> 17 </feature>
					<threshold> 0.765625 </threshold>
					<split pos="left">
						<feature> 2 </feature>
						<threshold> 0.99609375 </threshold>
						<split pos="left">
							<output> -0.2839813530445099 </output>
						</split>
						<split pos="right">
							<output> -0.49003690481185913 </output>
						</split>
					</split>
					<split pos="right">
						<output> 0.5916010737419128 </output>
					</split>
				</split>
				<split pos="right">
					<feature> 9 </feature>
					<threshold> 0.70703125 </threshold>
					<split pos="left">
						<feature> 8 </feature>
						<threshold> 0.19140625 </threshold>
						<split pos="left">
							<output> -1.4972121715545654 </output>
						</split>
						<split pos="right">
							<output> 0.21595452725887299 </output>
						</split>
					</split>
					<split pos="right">
						<output> -7.095898151397705 </output>
					</split>
				</split>
			</split>
			<split pos="right">
				<feature> 14 </feature>
				<threshold> 0.098502904 </threshold>
				<split pos="left">
					<output> 0.9797669053077698 </output>
				</split>
				<split pos="right">
					<feature> 6 </feature>
					<threshold> 0.01171875 </threshold>
					<split pos="left">
						<output> -15.149914741516113 </output>
					</split>
					<split pos="right">
						<feature> 12 </feature>
						<threshold> 0.8828125 </threshold>
						<split pos="left">
							<output> -0.17865903675556183 </output>
						</split>
						<split pos="right">
							<output> 0.6215313076972961 </output>
						</split>
					</split>
				</split>
			</split>
		</split>
	</tree>
	<tree id="49" weight="0.1">
		<split>
			<feature> 17 </feature>
			<threshold> 0.32421875 </threshold>
			<split pos="left">
				<feature> 1 </feature>
				<threshold> 0.62890625 </threshold>
				<split pos="left">
					<output> -0.5570387244224548 </output>
				</split>
				<split pos="right">
					<output> 0.6870738863945007 </output>
				</split>
			</split>
			<split pos="right">
				<feature> 17 </feature>
				<threshold> 0.9921875 </threshold>
				<split pos="left">
					<feature> 2 </feature>
					<threshold> 0.99609375 </threshold>
					<split pos="left">
						<output> 1.2054243087768555 </output>
					</split>
					<split pos="right">
						<output> 0.8155118823051453 </output>
					</split>
				</split>
				<split pos="right">
					<feature> 8 </feature>
					<threshold> 0.02734375 </threshold>
					<split pos="left">
						<output> -2.872093439102173 </output>
					</split>
					<split pos="right">
						<feature> 16 </feature>
						<threshold> 0.8907646 </threshold>
						<split pos="left">
							<feature> 13 </feature>
							<threshold> 0.36328125 </threshold>
							<split pos="left">
								<output> -1.12530517578125 </output>
							</split>
							<split pos="right">
								<feature> 1 </feature>
								<threshold> 0.26953125 </threshold>
								<split pos="left">
									<output> 1.1613073348999023 </output>
								</split>
								<split pos="right">
									<feature> 14 </feature>
									<threshold> 0.6097423 </threshold>
									<split pos="left">
										<output> 0.060804333537817 </output>
									</split>
									<split pos="right">
										<output> 1.0264842510223389 </output>
									</split>
								</split>
							</split>
						</split>
						<split pos="right">
							<output> -2.4850265979766846 </output>
						</split>
					</split>
				</split>
			</split>
		</split>
	</tree>
	<tree id="50" weight="0.1">
		<split>
			<feature> 17 </feature>
			<threshold> 0.32421875 </threshold>
			<split pos="left">
				<feature> 2 </feature>
				<threshold> 0.99609375 </threshold>
				<split pos="left">
					<output> -0.27860182523727417 </output>
				</split>
				<split pos="right">
					<feature> 1 </feature>
					<threshold> 0.3046875 </threshold>
					<split pos="left">
						<output> -9.101049423217773 </output>
					</split>
					<split pos="right">
						<output> -0.08754746615886688 </output>
					</split>
				</split>
			</split>
			<split pos="right">
				<feature> 14 </feature>
				<threshold> 0.1492365 </threshold>
				<split pos="left">
					<feature> 13 </feature>
					<threshold> 0.33984375 </threshold>
					<split pos="left">
						<output> -0.5451988577842712 </output>
					</split>
					<split pos="right">
						<feature> 1 </feature>
						<threshold> 0.73828125 </threshold>
						<split pos="left">
							<feature> 8 </feature>
							<threshold> 0.20703125 </threshold>
							<split pos="left">
								<output> 0.9250552654266357 </output>
							</split>
							<split pos="right">
								<output> 1.1956843137741089 </output>
							</split>
						</split>
						<split pos="right">
							<feature> 13 </feature>
							<threshold> 0.6171875 </threshold>
							<split pos="left">
								<output> -1.6791383028030396 </output>
							</split>
							<split pos="right">
								<output> 0.49654337763786316 </output>
							</split>
						</split>
					</split>
				</split>
				<split pos="right">
					<feature> 13 </feature>
					<threshold> 0.87109375 </threshold>
					<split pos="left">
						<output> -0.9652760624885559 </output>
					</split>
					<split pos="right">
						<output> 0.3372047245502472 </output>
					</split>
				</split>
			</split>
		</split>
	</tree>
	<tree id="51" weight="0.1">
		<split>
			<feature> 17 </feature>
			<threshold> 0.32421875 </threshold>
			<split pos="left">
				<feature> 12 </feature>
				<threshold> 0.984375 </threshold>
				<split pos="left">
					<output> -0.43949294090270996 </output>
				</split>
				<split pos="right">
					<output> 0.40729960799217224 </output>
				</split>
			</split>
			<split pos="right">
				<feature> 17 </feature>
				<threshold> 0.9921875 </threshold>
				<split pos="left">
					<feature> 13 </feature>
					<threshold> 0.6796875 </threshold>
					<split pos="left">
						<output> 0.5083691477775574 </output>
					</split>
					<split pos="right">
						<feature> 5 </feature>
						<threshold> 0.16796875 </threshold>
						<split pos="left">
							<feature> 12 </feature>
							<threshold> 0.0 </threshold>
							<split pos="left">
								<feature> 17 </feature>
								<threshold> 0.39453125 </threshold>
								<split pos="left">
									<output> 1.1469558477401733 </output>
								</split>
								<split pos="right">
									<output> 3.6842312812805176 </output>
								</split>
							</split>
							<split pos="right">
								<output> 1.2358005046844482 </output>
							</split>
						</split>
						<split pos="right">
							<output> 1.1929500102996826 </output>
						</split>
					</split>
				</split>
				<split pos="right">
					<feature> 12 </feature>
					<threshold> 0.0 </threshold>
					<split pos="left">
						<output> -1.076493263244629 </output>
					</split>
					<split pos="right">
						<feature> 2 </feature>
						<threshold> 0.0234375 </threshold>
						<split pos="left">
							<output> 0.9754785299301147 </output>
						</split>
						<split pos="right">
							<output> -0.04825739189982414 </output>
						</split>
					</split>
				</split>
			</split>
		</split>
	</tree>
	<tree id="52" weight="0.1">
		<split>
			<feature> 17 </feature>
			<threshold> 0.32421875 </threshold>
			<split pos="left">
				<output> -0.2882941961288452 </output>
			</split>
			<split pos="right">
				<feature> 6 </feature>
				<threshold> 0.6328125 </threshold>
				<split pos="left">
					<feature> 6 </feature>
					<threshold> 0.625 </threshold>
					<split pos="left">
						<feature> 17 </feature>
						<threshold> 0.98046875 </threshold>
						<split pos="left">
							<feature> 13 </feature>
							<threshold> 0.6796875 </threshold>
							<split pos="left">
								<output> 0.7450451254844666 </output>
							</split>
							<split pos="right">
								<feature> 5 </feature>
								<threshold> 0.15234375 </threshold>
								<split pos="left">
									<feature> 6 </feature>
									<threshold> 0.5625 </threshold>
									<split pos="left">
										<output> 1.5846307277679443 </output>
									</split>
									<split pos="right">
										<feature> 17 </feature>
										<threshold> 0.45703125 </threshold>
										<split pos="left">
											<output> 1.1288373470306396 </output>
										</split>
										<split pos="right">
											<output> -1.0016989707946777 </output>
										</split>
									</split>
								</split>
								<split pos="right">
									<output> 1.1711989641189575 </output>
								</split>
							</split>
						</split>
						<split pos="right">
							<feature> 13 </feature>
							<threshold> 0.484375 </threshold>
							<split pos="left">
								<output> -1.210701823234558 </output>
							</split>
							<split pos="right">
								<output> 0.17913886904716492 </output>
							</split>
						</split>
					</split>
					<split pos="right">
						<output> 1.7165441513061523 </output>
					</split>
				</split>
				<split pos="right">
					<output> -0.8574343919754028 </output>
				</split>
			</split>
		</split>
	</tree>
	<tree id="53" weight="0.1">
		<split>
			<feature> 17 </feature>
			<threshold> 0.32421875 </threshold>
			<split pos="left">
				<feature> 12 </feature>
				<threshold> 0.984375 </threshold>
				<split pos="left">
					<feature> 2 </feature>
					<threshold> 0.99609375 </threshold>
					<split pos="left">
						<output> -0.29492491483688354 </output>
					</split>
					<split pos="right">
						<output> -1.1797001361846924 </output>
					</split>
				</split>
				<split pos="right">
					<output> 0.3743782341480255 </output>
				</split>
			</split>
			<split pos="right">
				<feature> 1 </feature>
				<threshold> 0.97265625 </threshold>
				<split pos="left">
					<feature> 13 </feature>
					<threshold> 0.65625 </threshold>
					<split pos="left">
						<feature> 14 </feature>
						<threshold> 0.1492365 </threshold>
						<split pos="left">
							<output> 0.5464422106742859 </output>
						</split>
						<split pos="right">
							<output> -0.9037631154060364 </output>
						</split>
					</split>
					<split pos="right">
						<feature> 5 </feature>
						<threshold> 0.15234375 </threshold>
						<split pos="left">
							<feature> 12 </feature>
							<threshold> 0.0 </threshold>
							<split pos="left">
								<feature> 17 </feature>
								<threshold> 0.39453125 </threshold>
								<split pos="left">
									<output> 1.113122582435608 </output>
								</split>
								<split pos="right">
									<output> 2.6817362308502197 </output>
								</split>
							</split>
							<split pos="right">
								<output> 1.1690446138381958 </output>
							</split>
						</split>
						<split pos="right">
							<output> 0.7824654579162598 </output>
						</split>
					</split>
				</split>
				<split pos="right">
					<output> -0.39430633187294006 </output>
				</split>
			</split>
		</split>
	</tree>
	<tree id="54" weight="0.1">
		<split>
			<feature> 13 </feature>
			<threshold> 0.66015625 </threshold>
			<split pos="left">
				<feature> 1 </feature>
				<threshold> 0.93359375 </threshold>
				<split pos="left">
					<feature> 1 </feature>
					<threshold> 0.890625 </threshold>
					<split pos="left">
						<feature> 2 </feature>
						<threshold> 0.99609375 </threshold>
						<split pos="left">
							<feature> 2 </feature>
							<threshold> 0.21875 </threshold>
							<split pos="left">
								<output> -0.49435970187187195 </output>
							</split>
							<split pos="right">
								<output> 0.7082667350769043 </output>
							</split>
						</split>
						<split pos="right">
							<output> -0.3995073735713959 </output>
						</split>
					</split>
					<split pos="right">
						<output> 1.1662874221801758 </output>
					</split>
				</split>
				<split pos="right">
					<output> -1.6923929452896118 </output>
				</split>
			</split>
			<split pos="right">
				<feature> 15 </feature>
				<threshold> 0.19761479 </threshold>
				<split pos="left">
					<feature> 8 </feature>
					<threshold> 0.03125 </threshold>
					<split pos="left">
						<feature> 15 </feature>
						<threshold> 0.18982464 </threshold>
						<split pos="left">
							<output> 1.35513174533844 </output>
						</split>
						<split pos="right">
							<output> 1.0985252857208252 </output>
						</split>
					</split>
					<split pos="right">
						<output> 0.77765291929245 </output>
					</split>
				</split>
				<split pos="right">
					<feature> 1 </feature>
					<threshold> 0.99609375 </threshold>
					<split pos="left">
						<output> 0.3117557466030121 </output>
					</split>
					<split pos="right">
						<output> -0.7499962449073792 </output>
					</split>
				</split>
			</split>
		</split>
	</tree>
	<tree id="55" weight="0.1">
		<split>
			<feature> 13 </feature>
			<threshold> 0.6796875 </threshold>
			<split pos="left">
				<feature> 17 </feature>
				<threshold> 0.90234375 </threshold>
				<split pos="left">
					<feature> 17 </feature>
					<threshold> 0.859375 </threshold>
					<split pos="left">
						<feature> 17 </feature>
