## LambdaMART
## No. of trees = 1000
## No. of leaves = 10
## No. of threshold candidates = 256
## Learning rate = 0.1
## Stop early = 100

<ensemble>
	<tree id="1" weight="0.1">
		<split>
			<feature> 13 </feature>
			<threshold> 0.10546875 </threshold>
			<split pos="left">
				<feature> 6 </feature>
				<threshold> 0.98828125 </threshold>
				<split pos="left">
					<feature> 3 </feature>
					<threshold> 0.0 </threshold>
					<split pos="left">
						<output> 1.9504132270812988 </output>
					</split>
					<split pos="right">
						<feature> 13 </feature>
						<threshold> 0.03125 </threshold>
						<split pos="left">
							<feature> 3 </feature>
							<threshold> 0.21875 </threshold>
							<split pos="left">
								<output> -1.1695653200149536 </output>
							</split>
							<split pos="right">
								<output> -0.993143618106842 </output>
							</split>
						</split>
						<split pos="right">
							<output> 0.36923182010650635 </output>
						</split>
					</split>
				</split>
				<split pos="right">
					<output> 1.4040344953536987 </output>
				</split>
			</split>
			<split pos="right">
				<feature> 6 </feature>
				<threshold> 0.96875 </threshold>
				<split pos="left">
					<feature> 2 </feature>
					<threshold> 0.99609375 </threshold>
					<split pos="left">
						<feature> 12 </feature>
						<threshold> 0.062549986 </threshold>
						<split pos="left">
							<output> 1.8930482864379883 </output>
						</split>
						<split pos="right">
							<feature> 11 </feature>
							<threshold> 0.47265625 </threshold>
							<split pos="left">
								<output> 0.8759970664978027 </output>
							</split>
							<split pos="right">
								<output> 1.3432201147079468 </output>
							</split>
						</split>
					</split>
					<split pos="right">
						<output> 1.5670491456985474 </output>
					</split>
				</split>
				<split pos="right">
					<output> 1.7604848146438599 </output>
				</split>
			</split>
		</split>
	</tree>
	<tree id="2" weight="0.1">
		<split>
			<feature> 13 </feature>
			<threshold> 0.640625 </threshold>
			<split pos="left">
				<feature> 13 </feature>
				<threshold> 0.10546875 </threshold>
				<split pos="left">
					<feature> 6 </feature>
					<threshold> 0.98828125 </threshold>
					<split pos="left">
						<output> -1.3112112283706665 </output>
					</split>
					<split pos="right">
						<output> 1.251306414604187 </output>
					</split>
				</split>
				<split pos="right">
					<feature> 11 </feature>
					<threshold> 0.47265625 </threshold>
					<split pos="left">
						<feature> 6 </feature>
						<threshold> 0.9921875 </threshold>
						<split pos="left">
							<feature> 12 </feature>
							<threshold> 0.054737903 </threshold>
							<split pos="left">
								<output> 1.6741324663162231 </output>
							</split>
							<split pos="right">
								<feature> 10 </feature>
								<threshold> 0.984375 </threshold>
								<split pos="left">
									<output> 0.6011946201324463 </output>
								</split>
								<split pos="right">
									<output> 1.181684136390686 </output>
								</split>
							</split>
						</split>
						<split pos="right">
							<output> 1.303396224975586 </output>
						</split>
					</split>
					<split pos="right">
						<output> 1.294406771659851 </output>
					</split>
				</split>
			</split>
			<split pos="right">
				<feature> 6 </feature>
				<threshold> 0.7890625 </threshold>
				<split pos="left">
					<feature> 2 </feature>
					<threshold> 0.99609375 </threshold>
					<split pos="left">
						<output> 1.25917387008667 </output>
					</split>
					<split pos="right">
						<output> 1.4435323476791382 </output>
					</split>
				</split>
				<split pos="right">
					<output> 1.6717275381088257 </output>
				</split>
			</split>
		</split>
	</tree>
	<tree id="3" weight="0.1">
		<split>
			<feature> 13 </feature>
			<threshold> 0.640625 </threshold>
			<split pos="left">
				<feature> 13 </feature>
				<threshold> 0.10546875 </threshold>
				<split pos="left">
					<feature> 6 </feature>
					<threshold> 0.98828125 </threshold>
					<split pos="left">
						<output> -1.1444108486175537 </output>
					</split>
					<split pos="right">
						<output> 1.057266116142273 </output>
					</split>
				</split>
				<split pos="right">
					<feature> 11 </feature>
					<threshold> 0.47265625 </threshold>
					<split pos="left">
						<feature> 6 </feature>
						<threshold> 0.9921875 </threshold>
						<split pos="left">
							<feature> 12 </feature>
							<threshold> 0.054737903 </threshold>
							<split pos="left">
								<output> 1.4744608402252197 </output>
							</split>
							<split pos="right">
								<output> 0.49720287322998047 </output>
							</split>
						</split>
						<split pos="right">
							<output> 1.1322847604751587 </output>
						</split>
					</split>
					<split pos="right">
						<output> 1.121742606163025 </output>
					</split>
				</split>
			</split>
			<split pos="right">
				<feature> 6 </feature>
				<threshold> 0.7890625 </threshold>
				<split pos="left">
					<feature> 6 </feature>
					<threshold> 0.07421875 </threshold>
					<split pos="left">
						<output> 0.8369957208633423 </output>
					</split>
					<split pos="right">
						<feature> 13 </feature>
						<threshold> 0.99609375 </threshold>
						<split pos="left">
							<output> 1.1220015287399292 </output>
						</split>
						<split pos="right">
							<output> 1.3304450511932373 </output>
						</split>
					</split>
				</split>
				<split pos="right">
					<output> 1.4729657173156738 </output>
				</split>
			</split>
		</split>
	</tree>
	<tree id="4" weight="0.1">
		<split>
			<feature> 13 </feature>
			<threshold> 0.640625 </threshold>
			<split pos="left">
				<feature> 13 </feature>
				<threshold> 0.10546875 </threshold>
				<split pos="left">
					<feature> 6 </feature>
					<threshold> 0.984375 </threshold>
					<split pos="left">
						<feature> 3 </feature>
						<threshold> 0.0 </threshold>
						<split pos="left">
							<output> 1.7266249656677246 </output>
						</split>
						<split pos="right">
							<output> -1.0362612009048462 </output>
						</split>
					</split>
					<split pos="right">
						<output> 0.9187461137771606 </output>
					</split>
				</split>
				<split pos="right">
					<feature> 11 </feature>
					<threshold> 0.47265625 </threshold>
					<split pos="left">
						<feature> 12 </feature>
						<threshold> 0.058643945 </threshold>
						<split pos="left">
							<output> 1.3777612447738647 </output>
						</split>
						<split pos="right">
							<feature> 6 </feature>
							<threshold> 0.9921875 </threshold>
							<split pos="left">
								<output> 0.4367164969444275 </output>
							</split>
							<split pos="right">
								<output> 0.9662712812423706 </output>
							</split>
						</split>
					</split>
					<split pos="right">
						<output> 0.9818189144134521 </output>
					</split>
				</split>
			</split>
			<split pos="right">
				<feature> 6 </feature>
				<threshold> 0.7890625 </threshold>
				<split pos="left">
					<feature> 6 </feature>
					<threshold> 0.07421875 </threshold>
					<split pos="left">
						<output> 0.6834689378738403 </output>
					</split>
					<split pos="right">
						<output> 1.1117851734161377 </output>
					</split>
				</split>
				<split pos="right">
					<output> 1.334654688835144 </output>
				</split>
			</split>
		</split>
	</tree>
	<tree id="5" weight="0.1">
		<split>
			<feature> 13 </feature>
			<threshold> 0.640625 </threshold>
			<split pos="left">
				<feature> 13 </feature>
				<threshold> 0.10546875 </threshold>
				<split pos="left">
					<feature> 6 </feature>
					<threshold> 0.984375 </threshold>
					<split pos="left">
						<feature> 3 </feature>
						<threshold> 0.0 </threshold>
						<split pos="left">
							<output> 1.5510337352752686 </output>
						</split>
						<split pos="right">
							<output> -0.9283992648124695 </output>
						</split>
					</split>
					<split pos="right">
						<output> 0.7959125638008118 </output>
					</split>
				</split>
				<split pos="right">
					<feature> 11 </feature>
					<threshold> 0.47265625 </threshold>
					<split pos="left">
						<feature> 12 </feature>
						<threshold> 0.06645603 </threshold>
						<split pos="left">
							<output> 1.279850721359253 </output>
						</split>
						<split pos="right">
							<feature> 6 </feature>
							<threshold> 0.9921875 </threshold>
							<split pos="left">
								<output> 0.3810213506221771 </output>
							</split>
							<split pos="right">
								<output> 0.8448843955993652 </output>
							</split>
						</split>
					</split>
					<split pos="right">
						<output> 0.8792250752449036 </output>
					</split>
				</split>
			</split>
			<split pos="right">
				<feature> 6 </feature>
				<threshold> 0.7890625 </threshold>
				<split pos="left">
					<feature> 6 </feature>
					<threshold> 0.07421875 </threshold>
					<split pos="left">
						<output> 0.5609869956970215 </output>
					</split>
					<split pos="right">
						<output> 0.9958595633506775 </output>
					</split>
				</split>
				<split pos="right">
					<output> 1.2344893217086792 </output>
				</split>
			</split>
		</split>
	</tree>
	<tree id="6" weight="0.1">
		<split>
			<feature> 13 </feature>
			<threshold> 0.640625 </threshold>
			<split pos="left">
				<feature> 13 </feature>
				<threshold> 0.10546875 </threshold>
				<split pos="left">
					<feature> 6 </feature>
					<threshold> 0.984375 </threshold>
					<split pos="left">
						<feature> 3 </feature>
						<threshold> 0.0 </threshold>
						<split pos="left">
							<output> 1.4289644956588745 </output>
						</split>
						<split pos="right">
							<feature> 13 </feature>
							<threshold> 0.03125 </threshold>
							<split pos="left">
								<output> -0.934100329875946 </output>
							</split>
							<split pos="right">
								<output> 0.22323988378047943 </output>
							</split>
						</split>
					</split>
					<split pos="right">
						<output> 0.692712664604187 </output>
					</split>
				</split>
				<split pos="right">
					<feature> 11 </feature>
					<threshold> 0.47265625 </threshold>
					<split pos="left">
						<feature> 12 </feature>
						<threshold> 0.06645603 </threshold>
						<split pos="left">
							<output> 1.203287124633789 </output>
						</split>
						<split pos="right">
							<output> 0.4127386212348938 </output>
						</split>
					</split>
					<split pos="right">
						<output> 0.7871012091636658 </output>
					</split>
				</split>
			</split>
			<split pos="right">
				<feature> 6 </feature>
				<threshold> 0.7890625 </threshold>
				<split pos="left">
					<feature> 6 </feature>
					<threshold> 0.07421875 </threshold>
					<split pos="left">
						<output> 0.43621543049812317 </output>
					</split>
					<split pos="right">
						<output> 0.9004724621772766 </output>
					</split>
				</split>
				<split pos="right">
					<output> 1.1555055379867554 </output>
				</split>
			</split>
		</split>
	</tree>
	<tree id="7" weight="0.1">
		<split>
			<feature> 13 </feature>
			<threshold> 0.640625 </threshold>
			<split pos="left">
				<feature> 13 </feature>
				<threshold> 0.140625 </threshold>
				<split pos="left">
					<feature> 3 </feature>
					<threshold> 0.0 </threshold>
					<split pos="left">
						<output> 1.3256330490112305 </output>
					</split>
					<split pos="right">
						<feature> 6 </feature>
						<threshold> 0.95703125 </threshold>
						<split pos="left">
							<feature> 13 </feature>
							<threshold> 0.0234375 </threshold>
							<split pos="left">
								<output> -0.8665428161621094 </output>
							</split>
							<split pos="right">
								<output> 0.18668900430202484 </output>
							</split>
						</split>
						<split pos="right">
							<output> 0.6020163893699646 </output>
						</split>
					</split>
				</split>
				<split pos="right">
					<feature> 11 </feature>
					<threshold> 0.47265625 </threshold>
					<split pos="left">
						<feature> 12 </feature>
						<threshold> 0.06645603 </threshold>
						<split pos="left">
							<output> 1.1380298137664795 </output>
						</split>
						<split pos="right">
							<output> 0.40075165033340454 </output>
						</split>
					</split>
					<split pos="right">
						<output> 0.7404608130455017 </output>
					</split>
				</split>
			</split>
			<split pos="right">
				<feature> 6 </feature>
				<threshold> 0.82421875 </threshold>
				<split pos="left">
					<feature> 6 </feature>
					<threshold> 0.07421875 </threshold>
					<split pos="left">
						<output> 0.3582737147808075 </output>
					</split>
					<split pos="right">
						<output> 0.8217580318450928 </output>
					</split>
				</split>
				<split pos="right">
					<output> 1.10072660446167 </output>
				</split>
			</split>
		</split>
	</tree>
	<tree id="8" weight="0.1">
		<split>
			<feature> 13 </feature>
			<threshold> 0.1875 </threshold>
			<split pos="left">
				<feature> 3 </feature>
				<threshold> 0.0 </threshold>
				<split pos="left">
					<output> 1.2443424463272095 </output>
				</split>
				<split pos="right">
					<feature> 6 </feature>
					<threshold> 0.8671875 </threshold>
					<split pos="left">
						<feature> 13 </feature>
						<threshold> 0.0234375 </threshold>
						<split pos="left">
							<feature> 5 </feature>
							<threshold> 0.0 </threshold>
							<split pos="left">
								<output> 0.7898173332214355 </output>
							</split>
							<split pos="right">
								<output> -0.8611837029457092 </output>
							</split>
						</split>
						<split pos="right">
							<output> 0.18338936567306519 </output>
						</split>
					</split>
					<split pos="right">
						<output> 0.5107676386833191 </output>
					</split>
				</split>
			</split>
			<split pos="right">
				<feature> 6 </feature>
				<threshold> 0.9609375 </threshold>
				<split pos="left">
					<feature> 11 </feature>
					<threshold> 0.47265625 </threshold>
					<split pos="left">
						<feature> 13 </feature>
						<threshold> 0.99609375 </threshold>
						<split pos="left">
							<feature> 12 </feature>
							<threshold> 0.113328524 </threshold>
							<split pos="left">
								<output> 1.0853928327560425 </output>
							</split>
							<split pos="right">
								<output> 0.36603349447250366 </output>
							</split>
						</split>
						<split pos="right">
							<output> 0.6867640018463135 </output>
						</split>
					</split>
					<split pos="right">
						<output> 0.7572172284126282 </output>
					</split>
				</split>
				<split pos="right">
					<output> 0.9731178283691406 </output>
				</split>
			</split>
		</split>
	</tree>
	<tree id="9" weight="0.1">
		<split>
			<feature> 13 </feature>
			<threshold> 0.1875 </threshold>
			<split pos="left">
				<feature> 3 </feature>
				<threshold> 0.00390625 </threshold>
				<split pos="left">
					<output> 1.2267440557479858 </output>
				</split>
				<split pos="right">
					<feature> 6 </feature>
					<threshold> 0.8671875 </threshold>
					<split pos="left">
						<feature> 5 </feature>
						<threshold> 0.0 </threshold>
						<split pos="left">
							<output> 0.7005173563957214 </output>
						</split>
						<split pos="right">
							<feature> 13 </feature>
							<threshold> 0.0234375 </threshold>
							<split pos="left">
								<output> -0.8446563482284546 </output>
							</split>
							<split pos="right">
								<output> 0.15242435038089752 </output>
							</split>
						</split>
					</split>
					<split pos="right">
						<output> 0.5145540833473206 </output>
					</split>
				</split>
			</split>
			<split pos="right">
				<feature> 6 </feature>
				<threshold> 0.9609375 </threshold>
				<split pos="left">
					<feature> 11 </feature>
					<threshold> 0.47265625 </threshold>
					<split pos="left">
						<feature> 13 </feature>
						<threshold> 0.99609375 </threshold>
						<split pos="left">
							<feature> 12 </feature>
							<threshold> 0.113328524 </threshold>
							<split pos="left">
								<output> 1.074424147605896 </output>
							</split>
							<split pos="right">
								<output> 0.34188878536224365 </output>
							</split>
						</split>
						<split pos="right">
							<output> 0.6254364848136902 </output>
						</split>
					</split>
					<split pos="right">
						<output> 0.6933555603027344 </output>
					</split>
				</split>
				<split pos="right">
					<output> 0.9147937893867493 </output>
				</split>
			</split>
		</split>
	</tree>
	<tree id="10" weight="0.1">
		<split>
			<feature> 13 </feature>
			<threshold> 0.1875 </threshold>
			<split pos="left">
				<feature> 3 </feature>
				<threshold> 0.00390625 </threshold>
				<split pos="left">
					<output> 1.1736161708831787 </output>
				</split>
				<split pos="right">
					<feature> 6 </feature>
					<threshold> 0.828125 </threshold>
					<split pos="left">
						<feature> 5 </feature>
						<threshold> 0.0 </threshold>
						<split pos="left">
							<output> 0.5995393395423889 </output>
						</split>
						<split pos="right">
							<feature> 13 </feature>
							<threshold> 0.01953125 </threshold>
							<split pos="left">
								<output> -0.7895549535751343 </output>
							</split>
							<split pos="right">
								<output> 0.16085422039031982 </output>
							</split>
						</split>
					</split>
					<split pos="right">
						<output> 0.4427533447742462 </output>
					</split>
				</split>
			</split>
			<split pos="right">
				<feature> 6 </feature>
				<threshold> 0.93359375 </threshold>
				<split pos="left">
					<feature> 11 </feature>
					<threshold> 0.47265625 </threshold>
					<split pos="left">
						<feature> 6 </feature>
						<threshold> 0.109375 </threshold>
						<split pos="left">
							<output> 0.163717582821846 </output>
						</split>
						<split pos="right">
							<feature> 13 </feature>
							<threshold> 0.66015625 </threshold>
							<split pos="left">
								<output> 0.3560466468334198 </output>
							</split>
							<split pos="right">
								<output> 0.6636333465576172 </output>
							</split>
						</split>
					</split>
					<split pos="right">
						<output> 0.626030683517456 </output>
					</split>
				</split>
				<split pos="right">
					<output> 0.842156171798706 </output>
				</split>
			</split>
		</split>
	</tree>
	<tree id="11" weight="0.1">
		<split>
			<feature> 13 </feature>
			<threshold> 0.1875 </threshold>
			<split pos="left">
				<feature> 3 </feature>
				<threshold> 0.00390625 </threshold>
				<split pos="left">
					<output> 1.1318559646606445 </output>
				</split>
				<split pos="right">
					<feature> 6 </feature>
					<threshold> 0.5703125 </threshold>
					<split pos="left">
						<feature> 5 </feature>
						<threshold> 0.0 </threshold>
						<split pos="left">
							<output> 0.5202837586402893 </output>
						</split>
						<split pos="right">
							<feature> 13 </feature>
							<threshold> 0.01953125 </threshold>
							<split pos="left">
								<output> -0.7647862434387207 </output>
							</split>
							<split pos="right">
								<output> 0.17384475469589233 </output>
							</split>
						</split>
					</split>
					<split pos="right">
						<output> 0.40674054622650146 </output>
					</split>
				</split>
			</split>
			<split pos="right">
				<feature> 6 </feature>
				<threshold> 0.75 </threshold>
				<split pos="left">
					<feature> 11 </feature>
					<threshold> 0.47265625 </threshold>
					<split pos="left">
						<feature> 6 </feature>
						<threshold> 0.0625 </threshold>
						<split pos="left">
							<output> 0.009553524665534496 </output>
						</split>
						<split pos="right">
							<feature> 13 </feature>
							<threshold> 0.61328125 </threshold>
							<split pos="left">
								<output> 0.23383520543575287 </output>
							</split>
							<split pos="right">
								<output> 0.5677063465118408 </output>
							</split>
						</split>
					</split>
					<split pos="right">
						<output> 0.5563045740127563 </output>
					</split>
				</split>
				<split pos="right">
					<output> 0.759571373462677 </output>
				</split>
			</split>
		</split>
	</tree>
	<tree id="12" weight="0.1">
		<split>
			<feature> 13 </feature>
			<threshold> 0.1875 </threshold>
			<split pos="left">
				<feature> 6 </feature>
				<threshold> 0.5703125 </threshold>
				<split pos="left">
					<feature> 3 </feature>
					<threshold> 0.01953125 </threshold>
					<split pos="left">
						<output> 1.3353525400161743 </output>
					</split>
					<split pos="right">
						<feature> 13 </feature>
						<threshold> 0.01953125 </threshold>
						<split pos="left">
							<feature> 5 </feature>
							<threshold> 0.0 </threshold>
							<split pos="left">
								<output> 0.3278801441192627 </output>
							</split>
							<split pos="right">
								<output> -0.7353928089141846 </output>
							</split>
						</split>
						<split pos="right">
							<output> 0.156678706407547 </output>
						</split>
					</split>
				</split>
				<split pos="right">
					<output> 0.44611334800720215 </output>
				</split>
			</split>
			<split pos="right">
				<feature> 6 </feature>
				<threshold> 0.73828125 </threshold>
				<split pos="left">
					<feature> 11 </feature>
					<threshold> 0.47265625 </threshold>
					<split pos="left">
						<feature> 6 </feature>
						<threshold> 0.0625 </threshold>
						<split pos="left">
							<output> -0.01083437167108059 </output>
						</split>
						<split pos="right">
							<feature> 3 </feature>
							<threshold> 0.21875 </threshold>
							<split pos="left">
								<output> 1.0352716445922852 </output>
							</split>
							<split pos="right">
								<output> 0.3232424855232239 </output>
							</split>
						</split>
					</split>
					<split pos="right">
						<output> 0.5051308274269104 </output>
					</split>
				</split>
				<split pos="right">
					<output> 0.6999102234840393 </output>
				</split>
			</split>
		</split>
	</tree>
	<tree id="13" weight="0.1">
		<split>
			<feature> 13 </feature>
			<threshold> 0.1875 </threshold>
			<split pos="left">
				<feature> 3 </feature>
				<threshold> 0.01953125 </threshold>
				<split pos="left">
					<output> 1.2697283029556274 </output>
				</split>
				<split pos="right">
					<feature> 6 </feature>
					<threshold> 0.5625 </threshold>
					<split pos="left">
						<feature> 13 </feature>
						<threshold> 0.01953125 </threshold>
						<split pos="left">
							<feature> 10 </feature>
							<threshold> 0.16796875 </threshold>
							<split pos="left">
								<output> 0.7009103894233704 </output>
							</split>
							<split pos="right">
								<output> -0.6478044986724854 </output>
							</split>
						</split>
						<split pos="right">
							<output> 0.15562225878238678 </output>
						</split>
					</split>
					<split pos="right">
						<output> 0.39204180240631104 </output>
					</split>
				</split>
			</split>
			<split pos="right">
				<feature> 6 </feature>
				<threshold> 0.703125 </threshold>
				<split pos="left">
					<feature> 11 </feature>
					<threshold> 0.87890625 </threshold>
					<split pos="left">
						<feature> 3 </feature>
						<threshold> 0.2890625 </threshold>
						<split pos="left">
							<output> 0.6955468058586121 </output>
						</split>
						<split pos="right">
							<feature> 2 </feature>
							<threshold> 0.765625 </threshold>
							<split pos="left">
								<output> 0.07362324744462967 </output>
							</split>
							<split pos="right">
								<output> 0.38515403866767883 </output>
							</split>
						</split>
					</split>
					<split pos="right">
						<output> 0.6047123074531555 </output>
					</split>
				</split>
				<split pos="right">
					<output> 0.6397572159767151 </output>
				</split>
			</split>
		</split>
	</tree>
	<tree id="14" weight="0.1">
		<split>
			<feature> 13 </feature>
			<threshold> 0.1875 </threshold>
			<split pos="left">
				<feature> 3 </feature>
				<threshold> 0.01953125 </threshold>
				<split pos="left">
					<output> 1.2331582307815552 </output>
				</split>
				<split pos="right">
					<feature> 6 </feature>
					<threshold> 0.5703125 </threshold>
					<split pos="left">
						<feature> 13 </feature>
						<threshold> 0.015625 </threshold>
						<split pos="left">
							<feature> 10 </feature>
							<threshold> 0.16796875 </threshold>
							<split pos="left">
								<output> 0.701594889163971 </output>
							</split>
							<split pos="right">
								<output> -0.6087901592254639 </output>
							</split>
						</split>
						<split pos="right">
							<output> 0.1357300728559494 </output>
						</split>
					</split>
					<split pos="right">
						<output> 0.35703662037849426 </output>
					</split>
				</split>
			</split>
			<split pos="right">
				<feature> 6 </feature>
				<threshold> 0.75 </threshold>
				<split pos="left">
					<feature> 3 </feature>
					<threshold> 0.2890625 </threshold>
					<split pos="left">
						<output> 0.7122540473937988 </output>
					</split>
					<split pos="right">
						<feature> 2 </feature>
						<threshold> 0.76171875 </threshold>
						<split pos="left">
							<feature> 9 </feature>
							<threshold> 0.23120491 </threshold>
							<split pos="left">
								<output> 0.99099200963974 </output>
							</split>
							<split pos="right">
								<output> 0.07063309103250504 </output>
							</split>
						</split>
						<split pos="right">
							<output> 0.390160471200943 </output>
						</split>
					</split>
				</split>
				<split pos="right">
					<output> 0.5830407738685608 </output>
				</split>
			</split>
		</split>
	</tree>
	<tree id="15" weight="0.1">
		<split>
			<feature> 13 </feature>
			<threshold> 0.1875 </threshold>
			<split pos="left">
				<feature> 3 </feature>
				<threshold> 0.01953125 </threshold>
				<split pos="left">
					<output> 1.1425880193710327 </output>
				</split>
				<split pos="right">
					<feature> 6 </feature>
					<threshold> 0.234375 </threshold>
					<split pos="left">
						<feature> 10 </feature>
						<threshold> 0.16796875 </threshold>
						<split pos="left">
							<output> 0.6526913642883301 </output>
						</split>
						<split pos="right">
							<feature> 5 </feature>
							<threshold> 0.0078125 </threshold>
							<split pos="left">
								<output> 0.3007155656814575 </output>
							</split>
							<split pos="right">
								<output> -0.5326510667800903 </output>
							</split>
						</split>
					</split>
					<split pos="right">
						<output> 0.23551365733146667 </output>
					</split>
				</split>
			</split>
			<split pos="right">
				<feature> 6 </feature>
				<threshold> 0.703125 </threshold>
				<split pos="left">
					<feature> 3 </feature>
					<threshold> 0.2890625 </threshold>
					<split pos="left">
						<output> 0.6652992963790894 </output>
					</split>
					<split pos="right">
						<feature> 11 </feature>
						<threshold> 0.87890625 </threshold>
						<split pos="left">
							<feature> 6 </feature>
							<threshold> 0.3359375 </threshold>
							<split pos="left">
								<output> 0.013640807941555977 </output>
							</split>
							<split pos="right">
								<output> 0.3059522807598114 </output>
							</split>
						</split>
						<split pos="right">
							<output> 0.4551635980606079 </output>
						</split>
					</split>
				</split>
				<split pos="right">
					<output> 0.5414591431617737 </output>
				</split>
			</split>
		</split>
	</tree>
	<tree id="16" weight="0.1">
		<split>
			<feature> 13 </feature>
			<threshold> 0.21875 </threshold>
			<split pos="left">
				<feature> 3 </feature>
				<threshold> 0.01953125 </threshold>
				<split pos="left">
					<output> 1.0816980600357056 </output>
				</split>
				<split pos="right">
					<feature> 6 </feature>
					<threshold> 0.2421875 </threshold>
					<split pos="left">
						<feature> 13 </feature>
						<threshold> 0.01953125 </threshold>
						<split pos="left">
							<feature> 10 </feature>
							<threshold> 0.16796875 </threshold>
							<split pos="left">
								<output> 0.717059850692749 </output>
							</split>
							<split pos="right">
								<output> -0.5965356230735779 </output>
							</split>
						</split>
						<split pos="right">
							<output> 0.15703734755516052 </output>
						</split>
					</split>
					<split pos="right">
						<feature> 2 </feature>
						<threshold> 0.51171875 </threshold>
						<split pos="left">
							<feature> 6 </feature>
							<threshold> 0.99609375 </threshold>
							<split pos="left">
								<output> 0.3224327862262726 </output>
							</split>
							<split pos="right">
								<output> -0.35329872369766235 </output>
							</split>
						</split>
						<split pos="right">
							<output> 0.8075151443481445 </output>
						</split>
					</split>
				</split>
			</split>
			<split pos="right">
				<feature> 6 </feature>
				<threshold> 0.6015625 </threshold>
				<split pos="left">
					<feature> 11 </feature>
					<threshold> 0.109375 </threshold>
					<split pos="left">
						<output> -0.002334434073418379 </output>
					</split>
					<split pos="right">
						<output> 0.3445068895816803 </output>
					</split>
				</split>
				<split pos="right">
					<output> 0.49934542179107666 </output>
				</split>
			</split>
		</split>
	</tree>
	<tree id="17" weight="0.1">
		<split>
			<feature> 13 </feature>
			<threshold> 0.72265625 </threshold>
			<split pos="left">
				<feature> 3 </feature>
				<threshold> 0.01953125 </threshold>
				<split pos="left">
					<output> 0.895311713218689 </output>
				</split>
				<split pos="right">
					<feature> 2 </feature>
					<threshold> 0.16796875 </threshold>
					<split pos="left">
						<feature> 13 </feature>
						<threshold> 0.015625 </threshold>
						<split pos="left">
							<output> -0.5214179158210754 </output>
						</split>
						<split pos="right">
							<output> 0.24844990670681 </output>
						</split>
					</split>
					<split pos="right">
						<feature> 3 </feature>
						<threshold> 0.44921875 </threshold>
						<split pos="left">
							<output> 0.4838310480117798 </output>
						</split>
						<split pos="right">
							<feature> 7 </feature>
							<threshold> 0.078125 </threshold>
							<split pos="left">
								<output> -4.114809036254883 </output>
							</split>
							<split pos="right">
								<feature> 11 </feature>
								<threshold> 0.73046875 </threshold>
								<split pos="left">
									<feature> 8 </feature>
									<threshold> 0.6249219 </threshold>
									<split pos="left">
										<output> 0.4665784537792206 </output>
									</split>
									<split pos="right">
										<feature> 9 </feature>
										<threshold> 0.19257201 </threshold>
										<split pos="left">
											<output> -0.9797934889793396 </output>
										</split>
										<split pos="right">
											<output> -0.02562352456152439 </output>
										</split>
									</split>
								</split>
								<split pos="right">
									<output> 0.37180137634277344 </output>
								</split>
							</split>
						</split>
					</split>
				</split>
			</split>
			<split pos="right">
				<output> 0.40537601709365845 </output>
			</split>
		</split>
	</tree>
	<tree id="18" weight="0.1">
		<split>
			<feature> 2 </feature>
			<threshold> 0.16796875 </threshold>
			<split pos="left">
				<feature> 3 </feature>
				<threshold> 0.01953125 </threshold>
				<split pos="left">
					<output> 0.8279197812080383 </output>
				</split>
				<split pos="right">
					<feature> 5 </feature>
					<threshold> 0.0 </threshold>
					<split pos="left">
						<output> 0.4199587106704712 </output>
					</split>
					<split pos="right">
						<feature> 13 </feature>
						<threshold> 0.01171875 </threshold>
						<split pos="left">
							<output> -0.576606273651123 </output>
						</split>
						<split pos="right">
							<output> 0.18294891715049744 </output>
						</split>
					</split>
				</split>
			</split>
			<split pos="right">
				<feature> 6 </feature>
				<threshold> 0.34765625 </threshold>
				<split pos="left">
					<feature> 11 </feature>
					<threshold> 0.87109375 </threshold>
					<split pos="left">
						<feature> 3 </feature>
						<threshold> 0.3359375 </threshold>
						<split pos="left">
							<output> 0.3883931338787079 </output>
						</split>
						<split pos="right">
							<output> -0.040185291320085526 </output>
						</split>
					</split>
					<split pos="right">
						<output> 0.48170793056488037 </output>
					</split>
				</split>
				<split pos="right">
					<feature> 12 </feature>
					<threshold> 0.30081853 </threshold>
					<split pos="left">
						<output> 0.8795756101608276 </output>
					</split>
					<split pos="right">
						<feature> 13 </feature>
						<threshold> 0.99609375 </threshold>
						<split pos="left">
							<output> 0.15871389210224152 </output>
						</split>
						<split pos="right">
							<output> 0.548375129699707 </output>
						</split>
					</split>
				</split>
			</split>
		</split>
	</tree>
	<tree id="19" weight="0.1">
		<split>
			<feature> 2 </feature>
			<threshold> 0.16796875 </threshold>
			<split pos="left">
				<feature> 3 </feature>
				<threshold> 0.01953125 </threshold>
				<split pos="left">
					<output> 0.7830783724784851 </output>
				</split>
				<split pos="right">
					<feature> 5 </feature>
					<threshold> 0.0 </threshold>
					<split pos="left">
						<output> 0.3865516185760498 </output>
					</split>
					<split pos="right">
						<feature> 13 </feature>
						<threshold> 0.01171875 </threshold>
						<split pos="left">
							<output> -0.5386942625045776 </output>
						</split>
						<split pos="right">
							<output> 0.16801652312278748 </output>
						</split>
					</split>
				</split>
			</split>
			<split pos="right">
				<feature> 6 </feature>
				<threshold> 0.34765625 </threshold>
				<split pos="left">
					<feature> 11 </feature>
					<threshold> 0.87109375 </threshold>
					<split pos="left">
						<feature> 3 </feature>
						<threshold> 0.0703125 </threshold>
						<split pos="left">
							<output> 1.560183048248291 </output>
						</split>
						<split pos="right">
							<feature> 3 </feature>
							<threshold> 0.53125 </threshold>
							<split pos="left">
								<output> 0.21804015338420868 </output>
							</split>
							<split pos="right">
								<output> -0.135096937417984 </output>
							</split>
						</split>
					</split>
					<split pos="right">
						<output> 0.42747506499290466 </output>
					</split>
				</split>
				<split pos="right">
					<feature> 12 </feature>
					<threshold> 0.30081853 </threshold>
					<split pos="left">
						<output> 0.8227637410163879 </output>
					</split>
					<split pos="right">
						<output> 0.23085394501686096 </output>
					</split>
				</split>
			</split>
		</split>
	</tree>
	<tree id="20" weight="0.1">
		<split>
			<feature> 2 </feature>
			<threshold> 0.16796875 </threshold>
			<split pos="left">
				<feature> 3 </feature>
				<threshold> 0.01953125 </threshold>
				<split pos="left">
					<output> 0.7322969436645508 </output>
				</split>
				<split pos="right">
					<feature> 10 </feature>
					<threshold> 0.296875 </threshold>
					<split pos="left">
						<output> 0.4663766622543335 </output>
					</split>
					<split pos="right">
						<feature> 13 </feature>
						<threshold> 0.01171875 </threshold>
						<split pos="left">
							<output> -0.5088041424751282 </output>
						</split>
						<split pos="right">
							<output> 0.17770618200302124 </output>
						</split>
					</split>
				</split>
			</split>
			<split pos="right">
				<feature> 6 </feature>
				<threshold> 0.34765625 </threshold>
				<split pos="left">
					<feature> 3 </feature>
					<threshold> 0.0703125 </threshold>
					<split pos="left">
						<output> 1.3192179203033447 </output>
					</split>
					<split pos="right">
						<feature> 11 </feature>
						<threshold> 0.87109375 </threshold>
						<split pos="left">
							<feature> 3 </feature>
							<threshold> 0.53125 </threshold>
							<split pos="left">
								<output> 0.2034209817647934 </output>
							</split>
							<split pos="right">
								<output> -0.13048046827316284 </output>
							</split>
						</split>
						<split pos="right">
							<output> 0.38642430305480957 </output>
						</split>
					</split>
				</split>
				<split pos="right">
					<feature> 3 </feature>
					<threshold> 0.4140625 </threshold>
					<split pos="left">
						<output> 0.7300378680229187 </output>
					</split>
					<split pos="right">
						<output> 0.16923955082893372 </output>
					</split>
				</split>
			</split>
		</split>
	</tree>
	<tree id="21" weight="0.1">
		<split>
			<feature> 2 </feature>
			<threshold> 0.16796875 </threshold>
			<split pos="left">
				<output> -0.2363399714231491 </output>
			</split>
			<split pos="right">
				<feature> 13 </feature>
				<threshold> 0.99609375 </threshold>
				<split pos="left">
					<feature> 3 </feature>
					<threshold> 0.390625 </threshold>
					<split pos="left">
						<output> 0.4161372482776642 </output>
					</split>
					<split pos="right">
						<feature> 13 </feature>
						<threshold> 0.96484375 </threshold>
						<split pos="left">
							<feature> 8 </feature>
							<threshold> 0.39589274 </threshold>
							<split pos="left">
								<output> -4.644886016845703 </output>
							</split>
							<split pos="right">
								<feature> 7 </feature>
								<threshold> 0.28125 </threshold>
								<split pos="left">
									<output> 0.4826517105102539 </output>
								</split>
								<split pos="right">
									<feature> 8 </feature>
									<threshold> 0.43240464 </threshold>
									<split pos="left">
										<output> -5.101547718048096 </output>
									</split>
									<split pos="right">
										<feature> 8 </feature>
										<threshold> 0.45895875 </threshold>
										<split pos="left">
											<output> 1.3474094867706299 </output>
										</split>
										<split pos="right">
											<feature> 9 </feature>
											<threshold> 0.21961504 </threshold>
											<split pos="left">
												<output> 0.5723394751548767 </output>
											</split>
											<split pos="right">
												<output> -0.0046898359432816505 </output>
											</split>
										</split>
									</split>
								</split>
							</split>
						</split>
						<split pos="right">
							<output> -1.9230921268463135 </output>
						</split>
					</split>
				</split>
				<split pos="right">
					<output> 0.35509398579597473 </output>
				</split>
			</split>
		</split>
	</tree>
	<tree id="22" weight="0.1">
		<split>
			<feature> 6 </feature>
			<threshold> 0.20703125 </threshold>
			<split pos="left">
				<feature> 3 </feature>
				<threshold> 0.0390625 </threshold>
				<split pos="left">
					<output> 0.8390425443649292 </output>
				</split>
				<split pos="right">
					<feature> 11 </feature>
					<threshold> 0.87109375 </threshold>
					<split pos="left">
						<feature> 10 </feature>
						<threshold> 0.1484375 </threshold>
						<split pos="left">
							<output> 0.630310595035553 </output>
						</split>
						<split pos="right">
							<feature> 13 </feature>
							<threshold> 0.9375 </threshold>
							<split pos="left">
								<feature> 7 </feature>
								<threshold> 0.38671875 </threshold>
								<split pos="left">
									<output> 0.17354662716388702 </output>
								</split>
								<split pos="right">
									<output> -0.35576003789901733 </output>
								</split>
							</split>
							<split pos="right">
								<output> -0.5030914545059204 </output>
							</split>
						</split>
					</split>
					<split pos="right">
						<output> 0.4233185052871704 </output>
					</split>
				</split>
			</split>
			<split pos="right">
				<feature> 13 </feature>
				<threshold> 0.99609375 </threshold>
				<split pos="left">
					<feature> 3 </feature>
					<threshold> 0.4140625 </threshold>
					<split pos="left">
						<output> 0.442434698343277 </output>
					</split>
					<split pos="right">
						<feature> 6 </feature>
						<threshold> 0.98828125 </threshold>
						<split pos="left">
							<output> 0.09429699927568436 </output>
						</split>
						<split pos="right">
							<output> -0.45476579666137695 </output>
						</split>
					</split>
				</split>
				<split pos="right">
					<output> 0.46404632925987244 </output>
				</split>
			</split>
		</split>
	</tree>
	<tree id="23" weight="0.1">
		<split>
			<feature> 6 </feature>
			<threshold> 0.32421875 </threshold>
			<split pos="left">
				<feature> 3 </feature>
				<threshold> 0.0390625 </threshold>
				<split pos="left">
					<output> 0.7472051978111267 </output>
				</split>
				<split pos="right">
					<feature> 13 </feature>
					<threshold> 0.01171875 </threshold>
					<split pos="left">
						<feature> 10 </feature>
						<threshold> 0.296875 </threshold>
						<split pos="left">
							<output> 0.551586925983429 </output>
						</split>
						<split pos="right">
							<output> -0.44281822443008423 </output>
						</split>
					</split>
					<split pos="right">
						<feature> 11 </feature>
						<threshold> 0.05078125 </threshold>
						<split pos="left">
							<output> -0.23462706804275513 </output>
						</split>
						<split pos="right">
							<feature> 3 </feature>
							<threshold> 0.27734375 </threshold>
							<split pos="left">
								<output> 0.8350316882133484 </output>
							</split>
							<split pos="right">
								<output> 0.10501234978437424 </output>
							</split>
						</split>
					</split>
				</split>
			</split>
			<split pos="right">
				<feature> 3 </feature>
				<threshold> 0.4140625 </threshold>
				<split pos="left">
					<output> 0.5096807479858398 </output>
				</split>
				<split pos="right">
					<feature> 13 </feature>
					<threshold> 0.703125 </threshold>
					<split pos="left">
						<feature> 6 </feature>
						<threshold> 0.98828125 </threshold>
						<split pos="left">
							<output> 0.1049758791923523 </output>
						</split>
						<split pos="right">
							<output> -0.5421344637870789 </output>
						</split>
					</split>
					<split pos="right">
						<output> 0.3024587631225586 </output>
					</split>
				</split>
			</split>
		</split>
	</tree>
	<tree id="24" weight="0.1">
		<split>
			<feature> 2 </feature>
			<threshold> 0.5234375 </threshold>
			<split pos="left">
				<feature> 5 </feature>
				<threshold> 0.015625 </threshold>
				<split pos="left">
					<output> 0.4383854269981384 </output>
				</split>
				<split pos="right">
					<feature> 13 </feature>
					<threshold> 0.01953125 </threshold>
					<split pos="left">
						<output> -0.31311967968940735 </output>
					</split>
					<split pos="right">
						<feature> 3 </feature>
						<threshold> 0.2265625 </threshold>
						<split pos="left">
							<output> 0.5919850468635559 </output>
						</split>
						<split pos="right">
							<feature> 9 </feature>
							<threshold> 0.23893149 </threshold>
							<split pos="left">
								<output> 0.5891318321228027 </output>
							</split>
							<split pos="right">
								<feature> 10 </feature>
								<threshold> 0.0546875 </threshold>
								<split pos="left">
									<output> -5.096346855163574 </output>
								</split>
								<split pos="right">
									<feature> 7 </feature>
									<threshold> 0.0859375 </threshold>
									<split pos="left">
										<output> -4.852715492248535 </output>
									</split>
									<split pos="right">
										<feature> 2 </feature>
										<threshold> 0.515625 </threshold>
										<split pos="left">
											<output> -0.015586954541504383 </output>
										</split>
										<split pos="right">
											<output> -1.235154390335083 </output>
										</split>
									</split>
								</split>
							</split>
						</split>
					</split>
				</split>
			</split>
			<split pos="right">
				<feature> 5 </feature>
				<threshold> 0.44140625 </threshold>
				<split pos="left">
					<output> 0.396579772233963 </output>
				</split>
				<split pos="right">
					<output> -0.05744408071041107 </output>
				</split>
			</split>
		</split>
	</tree>
	<tree id="25" weight="0.1">
		<split>
			<feature> 6 </feature>
			<threshold> 0.20703125 </threshold>
			<split pos="left">
				<feature> 3 </feature>
				<threshold> 0.0390625 </threshold>
				<split pos="left">
					<output> 0.7269522547721863 </output>
				</split>
				<split pos="right">
					<feature> 7 </feature>
					<threshold> 0.3984375 </threshold>
					<split pos="left">
						<output> 0.21399234235286713 </output>
					</split>
					<split pos="right">
						<output> -0.26652055978775024 </output>
					</split>
				</split>
			</split>
			<split pos="right">
				<feature> 3 </feature>
				<threshold> 0.8984375 </threshold>
				<split pos="left">
					<feature> 2 </feature>
					<threshold> 0.8828125 </threshold>
					<split pos="left">
						<feature> 10 </feature>
						<threshold> 0.15234375 </threshold>
						<split pos="left">
							<output> -2.4366579055786133 </output>
						</split>
						<split pos="right">
							<feature> 12 </feature>
							<threshold> 0.12504666 </threshold>
							<split pos="left">
								<output> 0.7897573709487915 </output>
							</split>
							<split pos="right">
								<feature> 7 </feature>
								<threshold> 0.078125 </threshold>
								<split pos="left">
									<output> -1.6549296379089355 </output>
								</split>
								<split pos="right">
									<feature> 2 </feature>
									<threshold> 0.16015625 </threshold>
									<split pos="left">
										<output> -0.056520067155361176 </output>
									</split>
									<split pos="right">
										<output> 0.21810801327228546 </output>
									</split>
								</split>
							</split>
						</split>
					</split>
					<split pos="right">
						<output> 0.6343786120414734 </output>
					</split>
				</split>
				<split pos="right">
					<output> -0.27599748969078064 </output>
				</split>
			</split>
		</split>
	</tree>
	<tree id="26" weight="0.1">
		<split>
			<feature> 2 </feature>
			<threshold> 0.16796875 </threshold>
			<split pos="left">
				<feature> 5 </feature>
				<threshold> 0.0 </threshold>
				<split pos="left">
					<output> 0.4455612301826477 </output>
				</split>
				<split pos="right">
					<output> -0.23807218670845032 </output>
				</split>
			</split>
			<split pos="right">
				<feature> 3 </feature>
				<threshold> 0.3203125 </threshold>
				<split pos="left">
					<output> 0.4259124994277954 </output>
				</split>
				<split pos="right">
					<feature> 9 </feature>
					<threshold> 0.03417712 </threshold>
					<split pos="left">
						<output> -4.9974493980407715 </output>
					</split>
					<split pos="right">
						<feature> 7 </feature>
						<threshold> 0.0546875 </threshold>
						<split pos="left">
							<output> -5.042244911193848 </output>
						</split>
						<split pos="right">
							<feature> 3 </feature>
							<threshold> 0.8984375 </threshold>
							<split pos="left">
								<feature> 2 </feature>
								<threshold> 0.99609375 </threshold>
								<split pos="left">
									<feature> 7 </feature>
									<threshold> 0.203125 </threshold>
									<split pos="left">
										<output> 0.5277715921401978 </output>
									</split>
									<split pos="right">
										<feature> 7 </feature>
										<threshold> 0.9453125 </threshold>
										<split pos="left">
											<output> 0.019222097471356392 </output>
										</split>
										<split pos="right">
											<output> 0.49309027194976807 </output>
										</split>
									</split>
								</split>
								<split pos="right">
									<output> 0.4851509630680084 </output>
								</split>
							</split>
							<split pos="right">
								<output> -0.17339414358139038 </output>
							</split>
						</split>
					</split>
				</split>
			</split>
		</split>
	</tree>
	<tree id="27" weight="0.1">
		<split>
			<feature> 2 </feature>
			<threshold> 0.16796875 </threshold>
			<split pos="left">
				<feature> 3 </feature>
				<threshold> 0.0390625 </threshold>
				<split pos="left">
					<output> 0.6108654141426086 </output>
				</split>
				<split pos="right">
					<feature> 13 </feature>
					<threshold> 0.67578125 </threshold>
					<split pos="left">
						<feature> 13 </feature>
						<threshold> 0.01171875 </threshold>
						<split pos="left">
							<output> -0.33943986892700195 </output>
						</split>
						<split pos="right">
							<output> 0.22446300089359283 </output>
						</split>
					</split>
					<split pos="right">
						<output> -1.8207929134368896 </output>
					</split>
				</split>
			</split>
			<split pos="right">
				<feature> 3 </feature>
				<threshold> 0.64453125 </threshold>
				<split pos="left">
					<feature> 6 </feature>
					<threshold> 0.62109375 </threshold>
					<split pos="left">
						<feature> 8 </feature>
						<threshold> 0.6647531 </threshold>
						<split pos="left">
							<output> 0.42273086309432983 </output>
						</split>
						<split pos="right">
							<feature> 10 </feature>
							<threshold> 0.9453125 </threshold>
							<split pos="left">
								<output> 0.07704874128103256 </output>
							</split>
							<split pos="right">
								<output> 0.5525926947593689 </output>
							</split>
						</split>
					</split>
					<split pos="right">
						<output> 0.41947925090789795 </output>
					</split>
				</split>
				<split pos="right">
					<feature> 8 </feature>
					<threshold> 0.9834024 </threshold>
					<split pos="left">
						<output> -0.0022344132885336876 </output>
					</split>
					<split pos="right">
						<output> -0.8490470051765442 </output>
					</split>
				</split>
			</split>
		</split>
	</tree>
	<tree id="28" weight="0.1">
		<split>
			<feature> 2 </feature>
			<threshold> 0.484375 </threshold>
			<split pos="left">
				<feature> 5 </feature>
				<threshold> 0.08203125 </threshold>
				<split pos="left">
					<output> 0.3326205611228943 </output>
				</split>
				<split pos="right">
					<feature> 9 </feature>
					<threshold> 0.29301772 </threshold>
					<split pos="left">
						<output> 0.2894708216190338 </output>
					</split>
					<split pos="right">
						<feature> 11 </feature>
						<threshold> 0.375 </threshold>
						<split pos="left">
							<feature> 6 </feature>
							<threshold> 0.99609375 </threshold>
							<split pos="left">
								<feature> 6 </feature>
								<threshold> 0.9921875 </threshold>
								<split pos="left">
									<feature> 6 </feature>
									<threshold> 0.98828125 </threshold>
									<split pos="left">
										<feature> 10 </feature>
										<threshold> 0.109375 </threshold>
										<split pos="left">
											<output> 1.079653263092041 </output>
										</split>
										<split pos="right">
											<output> -0.2452932745218277 </output>
										</split>
									</split>
									<split pos="right">
										<output> -2.1794300079345703 </output>
									</split>
								</split>
								<split pos="right">
									<output> 1.245269775390625 </output>
								</split>
							</split>
							<split pos="right">
								<output> -0.389470636844635 </output>
							</split>
						</split>
						<split pos="right">
							<output> 0.14376932382583618 </output>
						</split>
					</split>
				</split>
			</split>
			<split pos="right">
				<feature> 9 </feature>
				<threshold> 0.37414712 </threshold>
				<split pos="left">
					<output> -0.3041973412036896 </output>
				</split>
				<split pos="right">
					<output> 0.2638688385486603 </output>
				</split>
			</split>
		</split>
	</tree>
	<tree id="29" weight="0.1">
		<split>
			<feature> 2 </feature>
			<threshold> 0.0703125 </threshold>
			<split pos="left">
				<feature> 5 </feature>
				<threshold> 0.0 </threshold>
				<split pos="left">
					<output> 0.39323294162750244 </output>
				</split>
				<split pos="right">
					<output> -0.3143368363380432 </output>
				</split>
			</split>
			<split pos="right">
				<feature> 3 </feature>
				<threshold> 0.28515625 </threshold>
				<split pos="left">
					<output> 0.4129844307899475 </output>
				</split>
				<split pos="right">
					<feature> 9 </feature>
					<threshold> 0.03417712 </threshold>
					<split pos="left">
						<output> -3.8386764526367188 </output>
					</split>
					<split pos="right">
						<feature> 2 </feature>
						<threshold> 0.96484375 </threshold>
						<split pos="left">
							<feature> 7 </feature>
							<threshold> 0.0546875 </threshold>
							<split pos="left">
								<output> -3.534391164779663 </output>
							</split>
							<split pos="right">
								<feature> 3 </feature>
								<threshold> 0.46484375 </threshold>
								<split pos="left">
									<output> 0.1342012882232666 </output>
								</split>
								<split pos="right">
									<feature> 8 </feature>
									<threshold> 0.41248906 </threshold>
									<split pos="left">
										<output> -3.436872720718384 </output>
									</split>
									<split pos="right">
										<feature> 8 </feature>
										<threshold> 0.80416214 </threshold>
										<split pos="left">
											<output> 0.1517530083656311 </output>
										</split>
										<split pos="right">
											<output> -0.2239791601896286 </output>
										</split>
									</split>
								</split>
							</split>
						</split>
						<split pos="right">
							<output> 0.21232357621192932 </output>
						</split>
					</split>
				</split>
			</split>
		</split>
	</tree>
	<tree id="30" weight="0.1">
		<split>
			<feature> 12 </feature>
			<threshold> 0.04692582 </threshold>
			<split pos="left">
				<output> 0.539270281791687 </output>
			</split>
			<split pos="right">
				<feature> 2 </feature>
				<threshold> 0.0703125 </threshold>
				<split pos="left">
					<output> -0.31076741218566895 </output>
				</split>
				<split pos="right">
					<feature> 3 </feature>
					<threshold> 0.28515625 </threshold>
					<split pos="left">
						<output> 0.3564663529396057 </output>
					</split>
					<split pos="right">
						<feature> 8 </feature>
						<threshold> 0.39257348 </threshold>
						<split pos="left">
							<output> 1.6373913288116455 </output>
						</split>
						<split pos="right">
							<feature> 7 </feature>
							<threshold> 0.0546875 </threshold>
							<split pos="left">
								<output> -3.9025638103485107 </output>
							</split>
							<split pos="right">
								<feature> 8 </feature>
								<threshold> 0.39589274 </threshold>
								<split pos="left">
									<output> -2.8515005111694336 </output>
								</split>
								<split pos="right">
									<feature> 9 </feature>
									<threshold> 0.092126474 </threshold>
									<split pos="left">
										<output> -1.9321867227554321 </output>
									</split>
									<split pos="right">
										<feature> 2 </feature>
										<threshold> 0.4921875 </threshold>
										<split pos="left">
											<feature> 10 </feature>
											<threshold> 0.1171875 </threshold>
											<split pos="left">
												<output> 0.8230896592140198 </output>
											</split>
											<split pos="right">
												<output> -0.06244906038045883 </output>
											</split>
										</split>
										<split pos="right">
											<output> 0.12102776020765305 </output>
										</split>
									</split>
								</split>
							</split>
						</split>
					</split>
				</split>
			</split>
		</split>
	</tree>
	<tree id="31" weight="0.1">
		<split>
			<feature> 3 </feature>
			<threshold> 0.04296875 </threshold>
			<split pos="left">
				<output> 0.5469543933868408 </output>
			</split>
			<split pos="right">
				<feature> 6 </feature>
				<threshold> 0.20703125 </threshold>
				<split pos="left">
					<feature> 1 </feature>
					<threshold> 0.04296875 </threshold>
					<split pos="left">
						<output> 1.5711239576339722 </output>
					</split>
					<split pos="right">
						<feature> 9 </feature>
						<threshold> 0.41664347 </threshold>
						<split pos="left">
							<output> 0.2101839780807495 </output>
						</split>
						<split pos="right">
							<output> -0.23970560729503632 </output>
						</split>
					</split>
				</split>
				<split pos="right">
					<feature> 5 </feature>
					<threshold> 0.67578125 </threshold>
					<split pos="left">
						<feature> 13 </feature>
						<threshold> 0.99609375 </threshold>
						<split pos="left">
							<feature> 12 </feature>
							<threshold> 0.09770436 </threshold>
							<split pos="left">
								<output> 0.902877151966095 </output>
							</split>
							<split pos="right">
								<feature> 10 </feature>
								<threshold> 0.15234375 </threshold>
								<split pos="left">
									<output> -2.5633785724639893 </output>
								</split>
								<split pos="right">
									<feature> 7 </feature>
									<threshold> 0.03125 </threshold>
									<split pos="left">
										<output> 1.3837567567825317 </output>
									</split>
									<split pos="right">
										<output> 0.10706263035535812 </output>
									</split>
								</split>
							</split>
						</split>
						<split pos="right">
							<output> 0.4631672203540802 </output>
						</split>
					</split>
					<split pos="right">
						<output> -0.36532822251319885 </output>
					</split>
				</split>
			</split>
		</split>
	</tree>
	<tree id="32" weight="0.1">
		<split>
			<feature> 3 </feature>
			<threshold> 0.015625 </threshold>
			<split pos="left">
				<output> 0.607551097869873 </output>
			</split>
			<split pos="right">
				<feature> 11 </feature>
				<threshold> 0.375 </threshold>
				<split pos="left">
					<feature> 4 </feature>
					<threshold> 0.96997 </threshold>
					<split pos="left">
						<feature> 3 </feature>
						<threshold> 0.0703125 </threshold>
						<split pos="left">
							<output> 0.4492592215538025 </output>
						</split>
						<split pos="right">
							<feature> 6 </feature>
							<threshold> 0.11328125 </threshold>
							<split pos="left">
								<feature> 13 </feature>
								<threshold> 0.9140625 </threshold>
								<split pos="left">
									<output> -0.2109650820493698 </output>
								</split>
								<split pos="right">
									<output> -0.948209285736084 </output>
								</split>
							</split>
							<split pos="right">
								<feature> 3 </feature>
								<threshold> 0.38671875 </threshold>
								<split pos="left">
									<output> 0.27707940340042114 </output>
								</split>
								<split pos="right">
									<output> -0.08181808143854141 </output>
								</split>
							</split>
						</split>
					</split>
					<split pos="right">
						<output> 1.1109141111373901 </output>
					</split>
				</split>
				<split pos="right">
					<feature> 10 </feature>
					<threshold> 0.0 </threshold>
					<split pos="left">
						<output> -3.1588752269744873 </output>
					</split>
					<split pos="right">
						<feature> 8 </feature>
						<threshold> 0.5087477 </threshold>
						<split pos="left">
							<output> 0.9237727522850037 </output>
						</split>
						<split pos="right">
							<output> 0.15763653814792633 </output>
						</split>
					</split>
				</split>
			</split>
		</split>
	</tree>
	<tree id="33" weight="0.1">
		<split>
			<feature> 3 </feature>
			<threshold> 0.04296875 </threshold>
			<split pos="left">
				<output> 0.5120881795883179 </output>
			</split>
			<split pos="right">
				<feature> 2 </feature>
				<threshold> 0.0390625 </threshold>
				<split pos="left">
					<output> -0.3139149844646454 </output>
				</split>
				<split pos="right">
					<feature> 3 </feature>
					<threshold> 0.28125 </threshold>
					<split pos="left">
						<output> 0.3493800163269043 </output>
					</split>
					<split pos="right">
						<feature> 3 </feature>
						<threshold> 0.8984375 </threshold>
						<split pos="left">
							<feature> 2 </feature>
							<threshold> 0.87890625 </threshold>
							<split pos="left">
								<feature> 12 </feature>
								<threshold> 0.027395612 </threshold>
								<split pos="left">
									<output> -11.975875854492188 </output>
								</split>
								<split pos="right">
									<feature> 10 </feature>
									<threshold> 0.25 </threshold>
									<split pos="left">
										<output> 0.48142296075820923 </output>
									</split>
									<split pos="right">
										<feature> 10 </feature>
										<threshold> 0.28515625 </threshold>
										<split pos="left">
											<output> -1.4832147359848022 </output>
										</split>
										<split pos="right">
											<feature> 5 </feature>
											<threshold> 0.25 </threshold>
											<split pos="left">
												<output> 0.1434844583272934 </output>
											</split>
											<split pos="right">
												<output> -0.10165341198444366 </output>
											</split>
										</split>
									</split>
								</split>
							</split>
							<split pos="right">
								<output> 0.3743683993816376 </output>
							</split>
						</split>
						<split pos="right">
							<output> -0.2528727650642395 </output>
						</split>
					</split>
				</split>
			</split>
		</split>
	</tree>
	<tree id="34" weight="0.1">
		<split>
			<feature> 3 </feature>
			<threshold> 0.04296875 </threshold>
			<split pos="left">
				<output> 0.44580939412117004 </output>
			</split>
			<split pos="right">
				<feature> 2 </feature>
				<threshold> 0.0390625 </threshold>
				<split pos="left">
					<output> -0.30114486813545227 </output>
				</split>
				<split pos="right">
					<feature> 3 </feature>
					<threshold> 0.44921875 </threshold>
					<split pos="left">
						<feature> 6 </feature>
						<threshold> 0.359375 </threshold>
						<split pos="left">
							<feature> 7 </feature>
							<threshold> 0.17578125 </threshold>
							<split pos="left">
								<output> 0.594508945941925 </output>
							</split>
							<split pos="right">
								<feature> 2 </feature>
								<threshold> 0.36328125 </threshold>
								<split pos="left">
									<output> -0.008879068307578564 </output>
								</split>
								<split pos="right">
									<output> 0.3614797592163086 </output>
								</split>
							</split>
						</split>
						<split pos="right">
							<output> 0.41105812788009644 </output>
						</split>
					</split>
					<split pos="right">
						<feature> 9 </feature>
						<threshold> 0.03417712 </threshold>
						<split pos="left">
							<output> -3.1002273559570312 </output>
						</split>
						<split pos="right">
							<feature> 8 </feature>
							<threshold> 0.8108007 </threshold>
							<split pos="left">
								<output> 0.09997706860303879 </output>
							</split>
							<split pos="right">
								<feature> 2 </feature>
								<threshold> 0.99609375 </threshold>
								<split pos="left">
									<output> -0.2106337696313858 </output>
								</split>
								<split pos="right">
									<output> 0.12639988958835602 </output>
								</split>
							</split>
						</split>
					</split>
				</split>
			</split>
		</split>
	</tree>
	<tree id="35" weight="0.1">
		<split>
			<feature> 5 </feature>
			<threshold> 0.13671875 </threshold>
			<split pos="left">
				<output> 0.19483967125415802 </output>
			</split>
			<split pos="right">
				<feature> 1 </feature>
				<threshold> 0.0078125 </threshold>
				<split pos="left">
					<output> 1.515934944152832 </output>
				</split>
				<split pos="right">
					<feature> 2 </feature>
					<threshold> 0.49609375 </threshold>
					<split pos="left">
						<feature> 13 </feature>
						<threshold> 0.8828125 </threshold>
						<split pos="left">
							<feature> 6 </feature>
							<threshold> 0.99609375 </threshold>
							<split pos="left">
								<feature> 6 </feature>
								<threshold> 0.9921875 </threshold>
								<split pos="left">
									<feature> 10 </feature>
									<threshold> 0.296875 </threshold>
									<split pos="left">
										<output> 0.5511173009872437 </output>
									</split>
									<split pos="right">
										<feature> 9 </feature>
										<threshold> 0.04576699 </threshold>
										<split pos="left">
											<output> 6.2139668464660645 </output>
										</split>
										<split pos="right">
											<feature> 13 </feature>
											<threshold> 0.01171875 </threshold>
											<split pos="left">
												<output> -0.3391163945198059 </output>
											</split>
											<split pos="right">
												<output> 0.06780940294265747 </output>
											</split>
										</split>
									</split>
								</split>
								<split pos="right">
									<output> 1.2266956567764282 </output>
								</split>
							</split>
							<split pos="right">
								<output> -0.3630285859107971 </output>
							</split>
						</split>
						<split pos="right">
							<output> -0.8824992775917053 </output>
						</split>
					</split>
					<split pos="right">
						<output> 0.0981055274605751 </output>
					</split>
				</split>
			</split>
		</split>
	</tree>
	<tree id="36" weight="0.1">
		<split>
			<feature> 7 </feature>
			<threshold> 0.17578125 </threshold>
			<split pos="left">
				<output> 0.36322420835494995 </output>
			</split>
			<split pos="right">
				<feature> 1 </feature>
				<threshold> 0.01171875 </threshold>
				<split pos="left">
					<output> -3.923312187194824 </output>
				</split>
				<split pos="right">
					<feature> 1 </feature>
					<threshold> 0.015625 </threshold>
					<split pos="left">
						<output> 1.3095574378967285 </output>
					</split>
					<split pos="right">
						<feature> 3 </feature>
						<threshold> 0.01171875 </threshold>
						<split pos="left">
							<output> 0.8776881694793701 </output>
						</split>
						<split pos="right">
							<feature> 3 </feature>
							<threshold> 0.8984375 </threshold>
							<split pos="left">
								<feature> 6 </feature>
								<threshold> 0.20703125 </threshold>
								<split pos="left">
									<feature> 6 </feature>
									<threshold> 0.0 </threshold>
									<split pos="left">
										<output> 0.16428335011005402 </output>
									</split>
									<split pos="right">
										<feature> 8 </feature>
										<threshold> 0.45232022 </threshold>
										<split pos="left">
											<output> -4.130877494812012 </output>
										</split>
										<split pos="right">
											<output> -0.2667478621006012 </output>
										</split>
									</split>
								</split>
								<split pos="right">
									<feature> 7 </feature>
									<threshold> 0.6953125 </threshold>
									<split pos="left">
										<output> -0.028721235692501068 </output>
									</split>
									<split pos="right">
										<output> 0.3278256952762604 </output>
									</split>
								</split>
							</split>
							<split pos="right">
								<output> -0.26943421363830566 </output>
							</split>
						</split>
					</split>
				</split>
			</split>
		</split>
	</tree>
	<tree id="37" weight="0.1">
		<split>
			<feature> 3 </feature>
			<threshold> 0.0703125 </threshold>
			<split pos="left">
				<output> 0.4072384834289551 </output>
			</split>
			<split pos="right">
				<feature> 11 </feature>
				<threshold> 0.375 </threshold>
				<split pos="left">
					<feature> 4 </feature>
					<threshold> 0.96997 </threshold>
					<split pos="left">
						<feature> 8 </feature>
						<threshold> 0.79420435 </threshold>
						<split pos="left">
							<feature> 6 </feature>
							<threshold> 0.984375 </threshold>
							<split pos="left">
								<output> 0.1211017370223999 </output>
							</split>
							<split pos="right">
								<output> -0.45427456498146057 </output>
							</split>
						</split>
						<split pos="right">
							<feature> 12 </feature>
							<threshold> 0.011771446 </threshold>
							<split pos="left">
								<output> -5.1816582679748535 </output>
							</split>
							<split pos="right">
								<feature> 6 </feature>
								<threshold> 0.0859375 </threshold>
								<split pos="left">
									<output> -0.44125866889953613 </output>
								</split>
								<split pos="right">
									<feature> 3 </feature>
									<threshold> 0.89453125 </threshold>
									<split pos="left">
										<output> 0.09953989833593369 </output>
									</split>
									<split pos="right">
										<output> -0.4827854633331299 </output>
									</split>
								</split>
							</split>
						</split>
					</split>
					<split pos="right">
						<output> 1.014435052871704 </output>
					</split>
				</split>
				<split pos="right">
					<feature> 8 </feature>
					<threshold> 0.28303778 </threshold>
					<split pos="left">
						<output> -8.588132858276367 </output>
					</split>
					<split pos="right">
						<output> 0.14803381264209747 </output>
					</split>
				</split>
			</split>
		</split>
	</tree>
	<tree id="38" weight="0.1">
		<split>
			<feature> 5 </feature>
			<threshold> 0.14453125 </threshold>
			<split pos="left">
				<output> 0.1789655238389969 </output>
			</split>
			<split pos="right">
				<feature> 1 </feature>
				<threshold> 0.0078125 </threshold>
				<split pos="left">
					<output> 1.437290072441101 </output>
				</split>
				<split pos="right">
					<feature> 2 </feature>
					<threshold> 0.0390625 </threshold>
					<split pos="left">
						<output> -0.3993268311023712 </output>
					</split>
					<split pos="right">
						<feature> 3 </feature>
						<threshold> 0.2734375 </threshold>
						<split pos="left">
							<output> 0.2998155951499939 </output>
						</split>
						<split pos="right">
							<feature> 10 </feature>
							<threshold> 0.0078125 </threshold>
							<split pos="left">
								<output> 1.2457298040390015 </output>
							</split>
							<split pos="right">
								<feature> 10 </feature>
								<threshold> 0.01953125 </threshold>
								<split pos="left">
									<output> -3.536468267440796 </output>
								</split>
								<split pos="right">
									<feature> 13 </feature>
									<threshold> 0.11328125 </threshold>
									<split pos="left">
										<output> 0.07541535049676895 </output>
									</split>
									<split pos="right">
										<feature> 1 </feature>
										<threshold> 0.23046875 </threshold>
										<split pos="left">
											<output> -4.306524276733398 </output>
										</split>
										<split pos="right">
											<feature> 8 </feature>
											<threshold> 0.5518981 </threshold>
											<split pos="left">
												<output> -0.8716058731079102 </output>
											</split>
											<split pos="right">
												<output> -0.06434156000614166 </output>
											</split>
										</split>
									</split>
								</split>
							</split>
						</split>
					</split>
				</split>
			</split>
		</split>
	</tree>
	<tree id="39" weight="0.1">
		<split>
			<feature> 8 </feature>
			<threshold> 0.6348797 </threshold>
			<split pos="left">
				<output> 0.22916148602962494 </output>
			</split>
			<split pos="right">
				<feature> 10 </feature>
				<threshold> 0.1328125 </threshold>
				<split pos="left">
					<output> 0.6171355247497559 </output>
				</split>
				<split pos="right">
					<feature> 6 </feature>
					<threshold> 0.07421875 </threshold>
					<split pos="left">
						<feature> 13 </feature>
						<threshold> 0.99609375 </threshold>
						<split pos="left">
							<output> -0.17076541483402252 </output>
						</split>
						<split pos="right">
							<output> -0.8969663977622986 </output>
						</split>
					</split>
					<split pos="right">
						<feature> 3 </feature>
						<threshold> 0.39453125 </threshold>
						<split pos="left">
							<output> 0.31912940740585327 </output>
						</split>
						<split pos="right">
							<feature> 5 </feature>
							<threshold> 0.83203125 </threshold>
							<split pos="left">
								<feature> 2 </feature>
								<threshold> 0.90625 </threshold>
								<split pos="left">
									<feature> 5 </feature>
									<threshold> 0.00390625 </threshold>
									<split pos="left">
										<output> -1.431204080581665 </output>
									</split>
									<split pos="right">
										<feature> 13 </feature>
										<threshold> 0.15234375 </threshold>
										<split pos="left">
											<output> 0.04930480197072029 </output>
										</split>
										<split pos="right">
											<output> -0.16662324965000153 </output>
										</split>
									</split>
								</split>
								<split pos="right">
									<output> 0.3060178756713867 </output>
								</split>
							</split>
							<split pos="right">
								<output> -0.5859286785125732 </output>
							</split>
						</split>
					</split>
				</split>
			</split>
		</split>
	</tree>
	<tree id="40" weight="0.1">
		<split>
			<feature> 6 </feature>
			<threshold> 0.0 </threshold>
			<split pos="left">
				<output> 0.21519462764263153 </output>
			</split>
			<split pos="right">
				<feature> 2 </feature>
				<threshold> 0.03125 </threshold>
				<split pos="left">
					<output> -0.6805845499038696 </output>
				</split>
				<split pos="right">
					<feature> 3 </feature>
					<threshold> 0.2890625 </threshold>
					<split pos="left">
						<output> 0.3268585503101349 </output>
					</split>
					<split pos="right">
						<feature> 8 </feature>
						<threshold> 0.5518981 </threshold>
						<split pos="left">
							<output> -0.5555720329284668 </output>
						</split>
						<split pos="right">
							<feature> 5 </feature>
							<threshold> 0.78515625 </threshold>
							<split pos="left">
								<feature> 13 </feature>
								<threshold> 0.99609375 </threshold>
								<split pos="left">
									<feature> 13 </feature>
									<threshold> 0.98046875 </threshold>
									<split pos="left">
										<feature> 9 </feature>
										<threshold> 0.17711885 </threshold>
										<split pos="left">
											<output> 0.730676531791687 </output>
										</split>
										<split pos="right">
											<feature> 7 </feature>
											<threshold> 0.73828125 </threshold>
											<split pos="left">
												<output> -0.1342928558588028 </output>
											</split>
											<split pos="right">
												<output> 0.12033950537443161 </output>
											</split>
										</split>
									</split>
									<split pos="right">
										<output> -2.114088296890259 </output>
									</split>
								</split>
								<split pos="right">
									<output> 0.2865169644355774 </output>
								</split>
							</split>
							<split pos="right">
								<output> -0.3588801622390747 </output>
							</split>
						</split>
					</split>
				</split>
			</split>
		</split>
	</tree>
	<tree id="41" weight="0.1">
		<split>
			<feature> 1 </feature>
			<threshold> 0.15234375 </threshold>
			<split pos="left">
				<output> 0.37034088373184204 </output>
			</split>
			<split pos="right">
				<feature> 3 </feature>
				<threshold> 0.0234375 </threshold>
				<split pos="left">
					<output> 1.064193844795227 </output>
				</split>
				<split pos="right">
					<feature> 11 </feature>
					<threshold> 0.23046875 </threshold>
					<split pos="left">
						<feature> 3 </feature>
						<threshold> 0.8515625 </threshold>
						<split pos="left">
							<feature> 4 </feature>
							<threshold> 0.16896024 </threshold>
							<split pos="left">
								<feature> 11 </feature>
								<threshold> 0.0 </threshold>
								<split pos="left">
									<feature> 6 </feature>
									<threshold> 0.765625 </threshold>
									<split pos="left">
										<output> -0.003438131185248494 </output>
									</split>
									<split pos="right">
										<output> 0.2748267650604248 </output>
									</split>
								</split>
								<split pos="right">
									<output> -0.2386057823896408 </output>
								</split>
							</split>
							<split pos="right">
								<output> 0.9843028783798218 </output>
							</split>
						</split>
						<split pos="right">
							<output> -0.41854631900787354 </output>
						</split>
					</split>
					<split pos="right">
						<feature> 10 </feature>
						<threshold> 0.0 </threshold>
						<split pos="left">
							<output> -2.9745047092437744 </output>
						</split>
						<split pos="right">
							<feature> 2 </feature>
							<threshold> 0.49609375 </threshold>
							<split pos="left">
								<output> 0.05064420774579048 </output>
							</split>
							<split pos="right">
								<output> 0.20178163051605225 </output>
							</split>
						</split>
					</split>
				</split>
			</split>
		</split>
	</tree>
	<tree id="42" weight="0.1">
		<split>
			<feature> 7 </feature>
			<threshold> 0.1640625 </threshold>
			<split pos="left">
				<output> 0.3433055877685547 </output>
			</split>
			<split pos="right">
				<feature> 1 </feature>
				<threshold> 0.01171875 </threshold>
				<split pos="left">
					<output> -2.891042947769165 </output>
				</split>
				<split pos="right">
					<feature> 1 </feature>
					<threshold> 0.015625 </threshold>
					<split pos="left">
						<output> 1.2820428609848022 </output>
					</split>
					<split pos="right">
						<feature> 5 </feature>
						<threshold> 0.1796875 </threshold>
						<split pos="left">
							<output> 0.12735511362552643 </output>
						</split>
						<split pos="right">
							<feature> 2 </feature>
							<threshold> 0.49609375 </threshold>
							<split pos="left">
								<feature> 13 </feature>
								<threshold> 0.8828125 </threshold>
								<split pos="left">
									<feature> 6 </feature>
									<threshold> 0.99609375 </threshold>
									<split pos="left">
										<feature> 10 </feature>
										<threshold> 0.11328125 </threshold>
										<split pos="left">
											<output> 0.9985325336456299 </output>
										</split>
										<split pos="right">
											<feature> 10 </feature>
											<threshold> 0.12109375 </threshold>
											<split pos="left">
												<output> -3.7404837608337402 </output>
											</split>
											<split pos="right">
												<output> -0.12033308297395706 </output>
											</split>
										</split>
									</split>
									<split pos="right">
										<output> -0.3981725871562958 </output>
									</split>
								</split>
								<split pos="right">
									<output> -0.9770083427429199 </output>
								</split>
							</split>
							<split pos="right">
								<output> 0.07786791026592255 </output>
							</split>
						</split>
					</split>
				</split>
			</split>
		</split>
	</tree>
	<tree id="43" weight="0.1">
		<split>
			<feature> 8 </feature>
			<threshold> 0.6348797 </threshold>
			<split pos="left">
				<output> 0.21168480813503265 </output>
			</split>
			<split pos="right">
				<feature> 10 </feature>
				<threshold> 0.1328125 </threshold>
				<split pos="left">
					<output> 0.6176601052284241 </output>
				</split>
				<split pos="right">
					<feature> 6 </feature>
					<threshold> 0.0703125 </threshold>
					<split pos="left">
						<feature> 13 </feature>
						<threshold> 0.99609375 </threshold>
						<split pos="left">
							<feature> 5 </feature>
							<threshold> 0.0 </threshold>
							<split pos="left">
								<output> 0.3429684042930603 </output>
							</split>
							<split pos="right">
								<output> -0.23163485527038574 </output>
							</split>
						</split>
						<split pos="right">
							<output> -0.8881109356880188 </output>
						</split>
					</split>
					<split pos="right">
						<feature> 3 </feature>
						<threshold> 0.84375 </threshold>
						<split pos="left">
							<feature> 2 </feature>
							<threshold> 0.80078125 </threshold>
							<split pos="left">
								<feature> 3 </feature>
								<threshold> 0.3984375 </threshold>
								<split pos="left">
									<output> 0.27864035964012146 </output>
								</split>
								<split pos="right">
									<feature> 8 </feature>
									<threshold> 0.9701253 </threshold>
									<split pos="left">
										<output> -0.12005347013473511 </output>
									</split>
									<split pos="right">
										<output> 0.6121349334716797 </output>
									</split>
								</split>
							</split>
							<split pos="right">
								<output> 0.4261363446712494 </output>
							</split>
						</split>
						<split pos="right">
							<output> -0.24911902844905853 </output>
						</split>
					</split>
				</split>
			</split>
		</split>
	</tree>
	<tree id="44" weight="0.1">
		<split>
			<feature> 6 </feature>
			<threshold> 0.0 </threshold>
			<split pos="left">
				<feature> 8 </feature>
				<threshold> 0.66807234 </threshold>
				<split pos="left">
					<output> 0.7212026715278625 </output>
				</split>
				<split pos="right">
					<output> 0.03484324365854263 </output>
				</split>
			</split>
			<split pos="right">
				<feature> 2 </feature>
				<threshold> 0.03125 </threshold>
				<split pos="left">
					<output> -0.6534689664840698 </output>
				</split>
				<split pos="right">
					<feature> 3 </feature>
					<threshold> 0.2890625 </threshold>
					<split pos="left">
						<output> 0.300071656703949 </output>
					</split>
					<split pos="right">
						<feature> 7 </feature>
						<threshold> 0.0390625 </threshold>
						<split pos="left">
							<output> -3.183846950531006 </output>
						</split>
						<split pos="right">
							<feature> 9 </feature>
							<threshold> 0.98068225 </threshold>
							<split pos="left">
								<feature> 7 </feature>
								<threshold> 0.73828125 </threshold>
								<split pos="left">
									<feature> 9 </feature>
									<threshold> 0.16552898 </threshold>
									<split pos="left">
										<output> 0.7836836576461792 </output>
									</split>
									<split pos="right">
										<feature> 10 </feature>
										<threshold> 0.5703125 </threshold>
										<split pos="left">
											<output> -0.29625293612480164 </output>
										</split>
										<split pos="right">
											<output> -0.049954891204833984 </output>
										</split>
									</split>
								</split>
								<split pos="right">
									<output> 0.12353193014860153 </output>
								</split>
							</split>
							<split pos="right">
								<output> -0.7401744723320007 </output>
							</split>
						</split>
					</split>
				</split>
			</split>
		</split>
	</tree>
	<tree id="45" weight="0.1">
		<split>
			<feature> 8 </feature>
			<threshold> 0.79420435 </threshold>
			<split pos="left">
				<feature> 6 </feature>
				<threshold> 0.0 </threshold>
				<split pos="left">
					<output> 0.491120845079422 </output>
				</split>
				<split pos="right">
					<feature> 10 </feature>
					<threshold> 0.02734375 </threshold>
					<split pos="left">
						<output> -2.8302001953125 </output>
					</split>
					<split pos="right">
						<feature> 6 </feature>
						<threshold> 0.984375 </threshold>
						<split pos="left">
							<feature> 6 </feature>
							<threshold> 0.359375 </threshold>
							<split pos="left">
								<output> -0.07853717356920242 </output>
							</split>
							<split pos="right">
								<output> 0.23998157680034637 </output>
							</split>
						</split>
						<split pos="right">
							<output> -0.34033551812171936 </output>
						</split>
					</split>
				</split>
			</split>
			<split pos="right">
				<feature> 1 </feature>
				<threshold> 0.01171875 </threshold>
				<split pos="left">
					<output> -3.375197172164917 </output>
				</split>
				<split pos="right">
					<feature> 3 </feature>
					<threshold> 0.46875 </threshold>
					<split pos="left">
						<feature> 6 </feature>
						<threshold> 0.42578125 </threshold>
						<split pos="left">
							<output> -0.0810600072145462 </output>
						</split>
						<split pos="right">
							<output> 0.35831430554389954 </output>
						</split>
					</split>
					<split pos="right">
						<feature> 9 </feature>
						<threshold> 0.37414712 </threshold>
						<split pos="left">
							<output> -0.4876689910888672 </output>
						</split>
						<split pos="right">
							<output> -0.1381668746471405 </output>
						</split>
					</split>
				</split>
			</split>
		</split>
	</tree>
	<tree id="46" weight="0.1">
		<split>
			<feature> 1 </feature>
			<threshold> 0.15234375 </threshold>
			<split pos="left">
				<output> 0.3318498730659485 </output>
			</split>
			<split pos="right">
				<feature> 3 </feature>
				<threshold> 0.0234375 </threshold>
				<split pos="left">
					<output> 1.022870659828186 </output>
				</split>
				<split pos="right">
					<feature> 2 </feature>
					<threshold> 0.16796875 </threshold>
					<split pos="left">
						<output> -0.16539789736270905 </output>
					</split>
					<split pos="right">
						<feature> 3 </feature>
						<threshold> 0.67578125 </threshold>
						<split pos="left">
							<feature> 8 </feature>
							<threshold> 0.26644146 </threshold>
							<split pos="left">
								<output> -4.236233711242676 </output>
							</split>
							<split pos="right">
								<feature> 1 </feature>
								<threshold> 0.23046875 </threshold>
								<split pos="left">
									<output> -0.5932550430297852 </output>
								</split>
								<split pos="right">
									<feature> 3 </feature>
									<threshold> 0.203125 </threshold>
									<split pos="left">
										<output> 0.6749024987220764 </output>
									</split>
									<split pos="right">
										<feature> 7 </feature>
										<threshold> 0.921875 </threshold>
										<split pos="left">
											<feature> 12 </feature>
											<threshold> 0.9531309 </threshold>
											<split pos="left">
												<output> 0.05908547714352608 </output>
											</split>
											<split pos="right">
												<output> 0.8537296652793884 </output>
											</split>
										</split>
										<split pos="right">
											<output> 0.4914061725139618 </output>
										</split>
									</split>
								</split>
							</split>
						</split>
						<split pos="right">
							<output> -0.07885641604661942 </output>
						</split>
					</split>
				</split>
			</split>
		</split>
	</tree>
	<tree id="47" weight="0.1">
		<split>
			<feature> 10 </feature>
			<threshold> 0.32421875 </threshold>
			<split pos="left">
				<output> 0.28957515954971313 </output>
			</split>
			<split pos="right">
				<feature> 1 </feature>
				<threshold> 0.015625 </threshold>
				<split pos="left">
					<output> 1.0398753881454468 </output>
				</split>
				<split pos="right">
					<feature> 5 </feature>
					<threshold> 0.07421875 </threshold>
					<split pos="left">
						<output> 0.2193482667207718 </output>
					</split>
					<split pos="right">
						<feature> 12 </feature>
						<threshold> 0.003959363 </threshold>
						<split pos="left">
							<output> -4.100809574127197 </output>
						</split>
						<split pos="right">
							<feature> 11 </feature>
							<threshold> 0.1640625 </threshold>
							<split pos="left">
								<feature> 4 </feature>
								<threshold> 0.6805779 </threshold>
								<split pos="left">
									<feature> 11 </feature>
									<threshold> 0.0 </threshold>
									<split pos="left">
										<output> -0.04065535217523575 </output>
									</split>
									<split pos="right">
										<output> -0.30911386013031006 </output>
									</split>
								</split>
								<split pos="right">
									<output> 1.4944084882736206 </output>
								</split>
							</split>
							<split pos="right">
								<feature> 8 </feature>
								<threshold> 0.47555506 </threshold>
								<split pos="left">
									<output> 1.006142258644104 </output>
								</split>
								<split pos="right">
									<feature> 2 </feature>
									<threshold> 0.55859375 </threshold>
									<split pos="left">
										<output> 0.00308028026483953 </output>
									</split>
									<split pos="right">
										<output> 0.1854901760816574 </output>
									</split>
								</split>
							</split>
						</split>
					</split>
				</split>
			</split>
		</split>
	</tree>
	<tree id="48" weight="0.1">
		<split>
			<feature> 12 </feature>
			<threshold> 5.3321266E-5 </threshold>
			<split pos="left">
				<output> -103.78564453125 </output>
			</split>
			<split pos="right">
				<feature> 3 </feature>
				<threshold> 0.015625 </threshold>
				<split pos="left">
					<output> 0.5099422335624695 </output>
				</split>
				<split pos="right">
					<feature> 1 </feature>
					<threshold> 0.03515625 </threshold>
					<split pos="left">
						<output> -1.364081621170044 </output>
					</split>
					<split pos="right">
						<feature> 8 </feature>
						<threshold> 0.79420435 </threshold>
						<split pos="left">
							<feature> 6 </feature>
							<threshold> 0.0 </threshold>
							<split pos="left">
								<output> 0.4457269608974457 </output>
							</split>
							<split pos="right">
								<feature> 10 </feature>
								<threshold> 0.35546875 </threshold>
								<split pos="left">
									<output> -0.4281941056251526 </output>
								</split>
								<split pos="right">
									<output> 0.033256735652685165 </output>
								</split>
							</split>
						</split>
						<split pos="right">
							<feature> 3 </feature>
							<threshold> 0.46875 </threshold>
							<split pos="left">
								<feature> 6 </feature>
								<threshold> 0.09375 </threshold>
								<split pos="left">
									<output> -0.2180304378271103 </output>
								</split>
								<split pos="right">
									<output> 0.2698444724082947 </output>
								</split>
							</split>
							<split pos="right">
								<feature> 9 </feature>
								<threshold> 0.37414712 </threshold>
								<split pos="left">
									<output> -0.45987412333488464 </output>
								</split>
								<split pos="right">
									<output> -0.13742759823799133 </output>
								</split>
							</split>
						</split>
					</split>
				</split>
			</split>
		</split>
	</tree>
	<tree id="49" weight="0.1">
		<split>
			<feature> 10 </feature>
			<threshold> 0.32421875 </threshold>
			<split pos="left">
				<output> 0.28120338916778564 </output>
			</split>
			<split pos="right">
				<feature> 1 </feature>
				<threshold> 0.015625 </threshold>
				<split pos="left">
					<output> 0.9482212662696838 </output>
				</split>
				<split pos="right">
					<feature> 5 </feature>
					<threshold> 0.07421875 </threshold>
					<split pos="left">
						<output> 0.2097409963607788 </output>
					</split>
					<split pos="right">
						<feature> 12 </feature>
						<threshold> 0.003959363 </threshold>
						<split pos="left">
							<output> -3.562162399291992 </output>
						</split>
						<split pos="right">
							<feature> 3 </feature>
							<threshold> 0.0078125 </threshold>
							<split pos="left">
								<output> 1.3826661109924316 </output>
							</split>
							<split pos="right">
								<feature> 6 </feature>
								<threshold> 0.0546875 </threshold>
								<split pos="left">
									<output> -0.2179761826992035 </output>
								</split>
								<split pos="right">
									<feature> 5 </feature>
									<threshold> 0.43359375 </threshold>
									<split pos="left">
										<feature> 2 </feature>
										<threshold> 0.49609375 </threshold>
										<split pos="left">
											<feature> 9 </feature>
											<threshold> 0.24279478 </threshold>
											<split pos="left">
												<output> 0.6222233772277832 </output>
											</split>
											<split pos="right">
												<output> 0.017176689580082893 </output>
											</split>
										</split>
										<split pos="right">
											<output> 0.30695009231567383 </output>
										</split>
									</split>
									<split pos="right">
										<output> -0.14587660133838654 </output>
									</split>
								</split>
							</split>
						</split>
					</split>
				</split>
			</split>
		</split>
	</tree>
	<tree id="50" weight="0.1">
		<split>
			<feature> 8 </feature>
			<threshold> 0.6348797 </threshold>
			<split pos="left">
				<output> 0.19105130434036255 </output>
			</split>
			<split pos="right">
				<feature> 10 </feature>
				<threshold> 0.32421875 </threshold>
				<split pos="left">
					<output> 0.35800468921661377 </output>
				</split>
				<split pos="right">
					<feature> 6 </feature>
					<threshold> 0.05859375 </threshold>
					<split pos="left">
						<output> -0.20725895464420319 </output>
					</split>
					<split pos="right">
						<feature> 12 </feature>
						<threshold> 0.5156509 </threshold>
						<split pos="left">
							<feature> 13 </feature>
							<threshold> 0.61328125 </threshold>
							<split pos="left">
								<feature> 7 </feature>
								<threshold> 0.12890625 </threshold>
								<split pos="left">
									<output> 1.7816778421401978 </output>
								</split>
								<split pos="right">
									<feature> 7 </feature>
									<threshold> 0.1328125 </threshold>
									<split pos="left">
										<output> -7.6224446296691895 </output>
									</split>
									<split pos="right">
										<feature> 10 </feature>
										<threshold> 0.609375 </threshold>
										<split pos="left">
											<output> -0.1857929676771164 </output>
										</split>
										<split pos="right">
											<output> 0.21688611805438995 </output>
										</split>
									</split>
								</split>
							</split>
							<split pos="right">
								<output> 0.39002761244773865 </output>
							</split>
						</split>
						<split pos="right">
							<feature> 13 </feature>
							<threshold> 0.19921875 </threshold>
							<split pos="left">
								<output> 0.12883590161800385 </output>
							</split>
							<split pos="right">
								<output> -0.2506202757358551 </output>
							</split>
						</split>
					</split>
				</split>
			</split>
		</split>
	</tree>
	<tree id="51" weight="0.1">
		<split>
			<feature> 6 </feature>
			<threshold> 0.0 </threshold>
			<split pos="left">
				<output> 0.19251282513141632 </output>
			</split>
			<split pos="right">
				<feature> 2 </feature>
				<threshold> 0.01953125 </threshold>
				<split pos="left">
					<output> -0.6610089540481567 </output>
				</split>
				<split pos="right">
					<feature> 3 </feature>
					<threshold> 0.2265625 </threshold>
					<split pos="left">
						<output> 0.3670264184474945 </output>
					</split>
					<split pos="right">
						<feature> 13 </feature>
						<threshold> 0.125 </threshold>
						<split pos="left">
							<output> 0.06285732239484787 </output>
						</split>
						<split pos="right">
							<feature> 7 </feature>
							<threshold> 0.3203125 </threshold>
							<split pos="left">
								<output> -0.46578991413116455 </output>
							</split>
							<split pos="right">
								<feature> 7 </feature>
								<threshold> 0.3359375 </threshold>
								<split pos="left">
									<output> 0.8042996525764465 </output>
								</split>
								<split pos="right">
									<feature> 13 </feature>
									<threshold> 0.98828125 </threshold>
									<split pos="left">
										<feature> 12 </feature>
										<threshold> 0.13285874 </threshold>
										<split pos="left">
											<output> 0.9036934971809387 </output>
										</split>
										<split pos="right">
											<feature> 6 </feature>
											<threshold> 0.8203125 </threshold>
											<split pos="left">
												<output> -0.09682245552539825 </output>
											</split>
											<split pos="right">
												<output> -0.37821802496910095 </output>
											</split>
										</split>
									</split>
									<split pos="right">
										<output> 0.12844842672348022 </output>
									</split>
								</split>
							</split>
						</split>
					</split>
				</split>
			</split>
		</split>
	</tree>
	<tree id="52" weight="0.1">
		<split>
			<feature> 2 </feature>
			<threshold> 0.0 </threshold>
			<split pos="left">
				<output> 0.33171746134757996 </output>
			</split>
			<split pos="right">
				<feature> 2 </feature>
				<threshold> 0.0390625 </threshold>
				<split pos="left">
					<output> -0.6352035403251648 </output>
				</split>
				<split pos="right">
					<feature> 3 </feature>
					<threshold> 0.1640625 </threshold>
					<split pos="left">
						<output> 0.4421544671058655 </output>
					</split>
					<split pos="right">
						<feature> 11 </feature>
						<threshold> 0.234375 </threshold>
						<split pos="left">
							<feature> 7 </feature>
							<threshold> 0.30859375 </threshold>
							<split pos="left">
								<output> -0.26898711919784546 </output>
							</split>
							<split pos="right">
								<feature> 3 </feature>
								<threshold> 0.8515625 </threshold>
								<split pos="left">
									<feature> 7 </feature>
									<threshold> 0.3359375 </threshold>
									<split pos="left">
										<output> 0.659067690372467 </output>
									</split>
									<split pos="right">
										<feature> 6 </feature>
										<threshold> 0.734375 </threshold>
										<split pos="left">
											<output> -0.04364542290568352 </output>
										</split>
										<split pos="right">
											<output> 0.1941608041524887 </output>
										</split>
									</split>
								</split>
								<split pos="right">
									<output> -0.31556007266044617 </output>
								</split>
							</split>
						</split>
						<split pos="right">
							<feature> 1 </feature>
							<threshold> 0.22265625 </threshold>
							<split pos="left">
								<output> 1.4312902688980103 </output>
							</split>
							<split pos="right">
								<output> 0.09297443926334381 </output>
							</split>
						</split>
					</split>
				</split>
			</split>
		</split>
	</tree>
	<tree id="53" weight="0.1">
		<split>
			<feature> 1 </feature>
			<threshold> 0.15234375 </threshold>
			<split pos="left">
				<output> 0.32563504576683044 </output>
			</split>
			<split pos="right">
				<feature> 3 </feature>
				<threshold> 0.0234375 </threshold>
				<split pos="left">
					<output> 0.989321768283844 </output>
				</split>
				<split pos="right">
					<feature> 2 </feature>
					<threshold> 0.16796875 </threshold>
					<split pos="left">
						<output> -0.14678087830543518 </output>
					</split>
					<split pos="right">
						<feature> 5 </feature>
						<threshold> 0.18359375 </threshold>
						<split pos="left">
							<output> 0.17757081985473633 </output>
						</split>
						<split pos="right">
							<feature> 1 </feature>
							<threshold> 0.23046875 </threshold>
							<split pos="left">
								<output> -0.8236213326454163 </output>
							</split>
							<split pos="right">
								<feature> 10 </feature>
								<threshold> 0.0078125 </threshold>
								<split pos="left">
									<output> 1.1578197479248047 </output>
								</split>
								<split pos="right">
									<feature> 10 </feature>
									<threshold> 0.01953125 </threshold>
									<split pos="left">
										<output> -2.797609329223633 </output>
									</split>
									<split pos="right">
										<feature> 10 </feature>
										<threshold> 0.08203125 </threshold>
										<split pos="left">
											<output> 1.3649791479110718 </output>
										</split>
										<split pos="right">
											<feature> 10 </feature>
											<threshold> 0.09765625 </threshold>
											<split pos="left">
												<output> -1.5704233646392822 </output>
											</split>
											<split pos="right">
												<output> 0.007329682353883982 </output>
											</split>
										</split>
									</split>
								</split>
							</split>
						</split>
					</split>
				</split>
			</split>
		</split>
	</tree>
	<tree id="54" weight="0.1">
		<split>
			<feature> 1 </feature>
			<threshold> 0.125 </threshold>
			<split pos="left">
				<output> 0.3313106894493103 </output>
			</split>
			<split pos="right">
				<feature> 12 </feature>
				<threshold> 0.02348957 </threshold>
				<split pos="left">
					<output> 0.8026638031005859 </output>
				</split>
				<split pos="right">
					<feature> 9 </feature>
					<threshold> 0.23893149 </threshold>
					<split pos="left">
						<output> 0.22824375331401825 </output>
					</split>
